-0.6 -0.62 0.3 0.13 0.74 0.24 -0.62 0.78 -0.16 0.43 -0.12 -0.42 0.499303 0.0493028 -0.32 0.77 0.32 0.26 -0.87 -0.74 0.34 -0.55 -0.74 -0.9 0.24 -0.29 0.29 -0.61 -0.46 -0.23 -0.78 0.26 0.27 0.94 0.981327 0.231773 -0.419435 -0.949296 0.490885 0.301003 0.0911639 -0.570106 0.489671 -0.0296388 -0.769565 0.0196275 -0.00997062 -0.120078 -0.749694 -0.0496482 0.350435 1.00052 0.87 -0.55 -0.2 -0.95 0.68 -0.02 -0.29 -0.550043 -0.890041 -0.138501 0.882326 -0.00100103 0.910365 0.976275 -0.363675 0.740046 0.713525 0.369773 -0.442448 -0.611219 0.961993 -0.885243 -0.332565 0.749494 0.723839 0.000301344 -0.917567 0.119543 0.289595 0.77054 0.18 0.73 -0.33 -0.1 -0.702015 -0.377264 -0.859771 0.395912 0.2356 0.167687 -0.578423 0.0370886 -0.186709 -0.788367 -0.0896504 0.820346 0.916973 1.06643 -0.156299 -0.602847 -0.14191 -0.887848 0.601165 0.0850112 -0.781377 0.0896661 -0.032255 0.661767 0.520438 0.24 0.88 -0.21 0.988 1.01802 0.641267 0.669127 -0.342991 0.65639 -0.0987156 -0.0758902 0.118404 0.0538923 0.587508 0.790622 -0.0235944 -0.0138994 -0.220607 -0.466715 0.638462 0.310261 0.901719 -0.0195707 -0.710953 -0.224969 -0.709812 -0.121588 0.0157994 0.49372 0.57 0.52 0.117866 0.295644 0.17401 1.04313 0.402197 0.591021 0.140647 -0.330411 0.58068 -0.404237 0.811309 0.695429 1.12786 -0.370945 0.0503364 0.989134 0.703502 0.00355085 -0.124376 0.170632 0.335747 0.0514241 -0.913476 -0.0957155 0.132552 -0.395267 0.51 0.849458 0.270425 -0.827643 1.03663 0.274233 0.13313 -0.0456915 1.06317 -0.481896 0.438282 -0.113694 0.41695 0.0458846 -1.25083 0.0750464 0.168232 -0.632159 -0.603661 -0.121203 0.267542 0.552353 0.424474 -0.693638 0.360771 -0.727927 -0.371169 -0.382939 -0.2 -0.524634 -0.691189 -0.204207 -0.165358 0.798959 -0.380934 -0.184018 0.0780562 0.063965 0.175386 0.340917 0.517763 0.683516 -0.386003 -0.30056 -1.09554 0.507184 -0.897118 -0.758475 -1.11042 -0.220104 -0.523622 -0.204064 -0.536049 0.698997 -0.339564 0.0170793 0.84991 0.0972578 0.57812 0.666608 -0.344464 -0.296798 0.350653 -0.603672 -0.0621727 0.8134 0.0653679 -0.238645 -0.12604 0.299597 0.115455 0.474303 -0.876948 -0.852298 -0.671595 -0.729641 -0.73479 -0.485858 -0.703196 0.689086 0.132599 -0.526831 0.748645 0.522889 -0.530002 -0.888271 0.465986 0.376273 0.223106 -0.844108 -0.215051 0.627339 1.32985 -0.000914947 -0.558119 0.429079 -0.0157714 -0.0846908 0.532888 -0.362947 -0.378464 -1.04193 0.762408 0.356274 1.07856 0.678265 -0.301681 -0.239532 -0.590095 -0.155325 -0.956568 0.838382 -0.869984 -0.738258 0.806308 0.865507 0.50453 0.51182 -0.329744 -0.144272 -0.608062 -0.789882 0.449384 -0.349002 0.318985 0.610766 -0.350209 0.38799 -0.501386 1.09166 0.814655 0.880484 0.753305 -0.211103 1.1588 0.472175 0.137524 -0.804672 -0.538449 -0.953674 -0.599483 0.113681 0.742507 0.413288 0.557868 0.34237 -0.63215 -0.612164 0.530224 0.459864 0.429598 0.244532 -0.186323 0.875915 0.616287 -0.28743 1.32254 1.27333 1.08381 0.912879 0.452064 -0.177616 -0.456639 -0.445013 0.0759936 -0.784569 -0.140018 0.851753 0.820424 -0.0186707 -0.190303 0.98204 -0.184415 -0.0110866 -0.25001 0.45028 0.413535 0.0790696 -0.381827 0.481287 0.326921 0.0164631 0.958092 0.613169 -0.395781 1.41546 -0.013877 -0.850856 0.414312 -0.973195 0.199892 -0.333914 0.498162 0.0328005 -0.0586182 0.112707 0.32 0.320804 0.789947 0.321798 -0.459677 -1.14188 0.00542458 -0.669398 -0.203885 0.590513 -0.471688 -0.0811063 0.475233 1.24598 0.937904 0.144442 1.24857 0.126498 0.337734 -0.905922 -0.221916 -0.603457 -1.01942 0.0666947 -1.03995 0.0992385 -0.555921 -0.0431238 0.660001 -0.872676 0.202293 0.530862 -0.33807 0.36955 0.771987 0.492276 -1.09942 -0.201481 -0.374397 0.91218 0.335613 0.900854 0.195806 0.125785 -0.128929 0.511315 -0.61956 0.467071 -0.708792 -0.178312 0.482077 0.236394 0.663032 -0.0348805 0.287677 0.526875 0.640856 0.176824 -0.314054 0.318842 -0.576278 0.222154 -0.510635 -0.548311 0.132936 -1.0121 -0.523628 0.195816 0.143814 -0.014113 -0.585605 0.190053 -0.575577 0.24997 0.753356 -0.674838 -0.0417784 -0.364586 0.492049 -0.603413 0.676396 1.04016 -0.337395 0.0291268 0.130855 -0.472187 0.315632 -0.263335 -0.105612 -1.22467 -0.342175 -0.363197 -0.150373 -0.0694137 -0.59767 -0.794768 -0.200234 0.884245 -0.713906 -0.159914 -0.710294 0.898466 -0.297523 -0.534342 0.603806 -0.263017 -0.89294 -0.0566925 -0.573574 0.883199 0.0599228 0.0980857 -0.83 -0.817628 0.772424 0.550022 -1.1651 -0.73531 0.323961 0.523298 -0.17576 -0.560081 -0.614111 -2.15532 0.109575 0.0819545 -0.989609 -1.31523 -1.10263 -0.633088 -0.358482 0.0809686 0.757054 -0.00434516 1.08068 -0.50961 0.353024 0.609901 0.00382289 0.199226 0.17696 -0.967843 -0.132537 0.909757 -0.226413 0.443468 0.089868 -0.439038 0.181514 -0.891269 -0.294474 -0.448873 -0.815485 -1.1531 -0.765436 -1.33208 -0.652461 0.70998 -0.33268 -0.717783 -0.621007 -0.470835 -0.891153 -0.534357 -0.359593 0.488451 -0.340508 0.876962 0.937603 0.692879 -0.306768 0.986829 0.803943 -0.70853 -0.0860085 -0.545991 -0.330801 -0.19942 -0.787932 0.352967 -0.70003 0.448929 -0.110885 0.293697 -0.713925 0.323603 0.306366 -0.0536442 -0.555619 0.736635 0.541485 -0.0545578 0.368765 0.498097 0.00649701 0.898094 0.19 0.525212 0.563743 0.245987 0.233882 0.508407 0.755472 -0.085371 0.690814 -0.0797842 -0.497759 -1.05921 -0.462871 0.840334 -0.788862 -0.509456 -0.697379 -0.651818 -0.0981728 0.43025 -0.163677 0.558274 1.02103 -0.0787039 -0.984214 -0.472574 -0.69902 0.639994 0.109997 0.080012 -0.262488 0.890314 1.11241 -0.82535 -0.0501359 0.998803 0.356194 -0.197033 -0.180863 0.871619 0.0981428 -0.230261 -0.135546 0.157795 0.587858 -0.41864 -0.0227097 0.185716 -0.15425 -0.617598 -0.582239 0.54496 0.919483 0.24155 -0.292178 0.759996 0.00999715 0.17004 0.240996 0.322671 0.417267 0.167292 -0.579634 0.871975 0.245717 0.51311 0.768721 0.410397 0.639442 -0.432875 0.673858 0.239826 -1.27661 0.607635 -1.12185 -0.586258 -0.473059 0.0274214 0.47228 -1.0739 -0.903884 -0.0805204 -0.542585 0.0699959 0.89 0.86 -0.171117 0.390218 -0.585383 -0.410564 -0.28938 0.685465 -0.0685926 -0.515223 0.82047 -0.0667221 -1.21327 -0.596784 -0.971309 0.471412 -0.80183 -0.403927 -0.165403 -0.378043 -0.850143 0.290435 -0.204744 0.358991 -0.179712 -0.238797 -0.167298 -0.02 0.77 -0.43 0.411612 -0.215937 0.00246575 0.438157 -0.499376 -0.705735 -0.340047 0.59312 -0.00314569 -1.08567 -0.36383 0.399352 -0.712737 -0.994614 -0.590213 -0.603067 -0.302438 -1.0209 0.182232 -0.414605 0.495959 -0.27579 0.742337 0.135592 -0.349724 0.13 -0.19 0.37 0.803004 -0.553891 -0.432626 -0.383427 -0.862938 -0.768848 0.553579 0.29955 1.12359 0.418456 -0.64584 -0.06646 -0.112505 -0.736848 0.123187 0.0666963 -0.352815 -0.0239506 -0.0496482 0.451383 1.05765 -0.0385904 -0.679663 -0.769984 -0.310113 -0.74 0.02 -0.87 -0.5 -0.389936 -0.868366 -0.868592 0.810286 -0.759313 -0.203599 0.614168 -0.906559 -0.815386 0.365283 0.460809 0.900104 -0.655664 0.136096 0.845869 -0.769803 -0.8687 0.126508 0.0160729 -0.515784 0.15831 0.790966 -0.560003 0.92 0.13 0.57 -0.64 -0.84 0.79 0.879986 0.989983 -0.539212 -0.00621813 -0.226338 -0.508042 -0.778202 0.383695 -0.607207 -0.788824 0.792484 -0.693884 0.897681 0.339166 0.015893 0.994925 0.319166 -0.254167 0.292533 0.418575 0.42 -0.72 0.66 0.23 0.25 -0.39 0.89 -0.81 0.24 0.51 0.82 0.18 0.92 0.52 0.88 0.88 0.579583 0.689583 -0.339715 -0.549715 0.39 0.19 -0.34 0.85 0.93 -0.56 -0.72 0.49 -0.87 -0.09 -0.74 -0.99 -0.48 -0.72 -1 0.61 0.78 0.47 -0.749796 -0.611213 -0.724461 -0.855911 0.659653 0.850811 -0.636447 -0.63219 0.235006 0.346764 0.861867 -0.173449 -0.0295066 0.562415 0.0882629 0.620384 -0.410446 -0.639994 -0.01 -0.68 -0.2 -0.23 -0.33 -0.7 -0.98 -0.965332 0.132363 -0.841192 0.531448 -0.926879 0.500757 0.492244 -0.423762 -0.815661 -0.596674 -0.284443 0.884661 -0.198629 -0.584351 0.161634 -0.904015 0.460874 0.499478 0.114748 0.172869 -0.773459 -0.290914 0.553534 -0.13 0.54 -0.01 -0.64 0.972262 0.454702 0.790346 -1.00608 -0.107398 -0.928503 -0.209806 0.132954 -0.594539 1.00825 0.107712 0.212786 -0.679622 0.0645094 -0.783349 0.635972 -0.0801273 -0.951218 -0.40681 0.368792 0.159327 -1.22555 -0.799446 -0.817876 0.851999 0.32 -0.07 0.97 0.922177 0.72079 -0.266548 0.87506 0.152059 -0.248894 1.24318 -0.391891 -0.100143 0.903716 1.10809 -0.374801 -0.602896 0.22963 -0.298637 -0.182548 -0.464711 0.740226 -0.541566 0.418321 0.389633 0.586416 -0.121301 0.919628 0.527397 0.593047 -0.55 -0.69 -0.298804 0.0751099 -0.589262 -0.13203 0.280081 0.383197 0.821233 -0.558898 -0.62596 -0.412596 0.728821 1.10795 0.5632 0.829928 1.34491 -0.374722 0.0495931 0.0315472 0.424448 -0.384773 -0.0808482 -0.310911 0.0578381 0.779162 0.941048 -0.511598 0.55 0.3 0.0533189 -0.878165 -0.261964 -0.228293 -0.341744 0.149609 0.245361 0.0551226 0.858862 1.27001 1.10437 -0.131731 -0.0440873 0.324495 0.648826 -0.498128 0.392706 0.262701 -0.380131 -0.580252 0.429123 0.401838 0.0970764 -0.287167 0.495355 -0.559171 -0.830016 -0.0509087 0.570561 0.211171 -0.540454 -0.368172 -0.262097 0.705407 -0.746985 -0.419789 -0.0229722 0.270504 0.53108 0.0894121 0.973696 0.325008 0.941942 0.573546 0.211721 0.684927 -0.467977 -0.722595 -0.427949 -0.204176 0.75982 0.483764 -0.420663 -0.126802 0.190001 0.642271 -0.718468 0.2031 0.208076 0.414305 0.330137 0.942657 -0.281564 0.00270555 -0.290458 0.358268 -1.07561 -0.448314 0.964634 0.824657 -0.0804583 -0.782789 0.55646 -0.794265 -0.45979 -0.372802 -0.264438 -0.544562 0.886299 0.0998985 0.179594 0.568577 0.969983 -0.614843 0.67189 -0.331122 0.377133 0.0593731 0.732002 -0.491591 -0.808265 0.435678 0.394617 -0.647156 -0.575936 -0.338642 0.00398993 -0.534507 0.0313396 -0.149407 0.771316 0.895095 1.04182 0.17154 0.470086 -1.03479 1.11267 0.785022 0.847621 0.297846 0.4 0.835176 0.0609126 0.311049 -0.854027 0.842865 -0.329304 0.329113 0.191501 -0.618031 -0.692553 -0.551952 -0.611932 -0.895254 -0.110516 -0.30608 -0.133944 0.0655967 0.505552 -0.0210641 0.189516 0.0222722 0.961098 -0.290299 1.04994 0.331957 -0.511651 0.786792 0.339982 -0.714389 0.396457 -0.820057 -0.50642 -0.259921 0.0757577 -1.38237 -0.304656 -0.696682 -0.112256 -0.195672 -1.35207 -0.624522 0.129744 0.966102 -0.166978 -1.16535 0.641962 1.1313 0.857309 0.468209 -0.793544 -0.128292 -0.254657 1.15738 -0.605853 0.836213 0.649981 -0.489758 -0.99463 -0.571753 -0.327198 -0.878594 -0.387353 -0.803945 0.778708 -1.1035 0.817026 -0.442182 0.475761 -0.163416 -0.558622 0.147597 0.220311 -0.126156 -0.351925 0.209564 0.4395 -0.0215958 -0.491906 0.63902 -0.81846 0.60262 0.229784 0.109021 0.8 0.340564 0.582458 -0.549177 0.566442 -0.493023 -0.949053 0.18416 -1.13364 0.678535 0.682476 0.436228 -0.491384 -0.489432 -0.520183 -0.724224 -1.0531 0.852076 0.95774 -0.21428 -0.544518 0.0494643 0.267248 0.108484 -0.153298 -0.173902 0.920858 -0.166741 -0.550018 0.379644 0.7741 0.186941 0.72953 -0.482387 -0.156441 -1.63838 -0.0503472 -0.557068 0.168506 -0.662037 0.0399416 -0.706667 0.217222 -0.91459 -0.666612 -0.152843 0.71502 -0.240875 -0.247017 -0.181195 -0.929805 0.477797 -0.0463729 0.057735 0.878477 -0.265507 0.389815 0.0599995 -0.566221 -0.374095 -0.42213 1.03545 -0.709705 -1.50686 0.302268 -0.203445 -0.317571 -0.926419 0.792008 -0.0345254 -0.121781 -1.30357 -0.475886 0.619131 0.0992758 -0.168254 0.363483 0.209759 -1.09445 1.06094 0.724562 -0.886344 0.659043 0.482968 0.669833 -0.250152 -0.378018 0.612805 0.327997 0.809222 -0.633422 -0.909121 -0.403321 -1.04426 -1.44486 0.0530378 -1.10511 0.0239791 -0.324328 -0.503791 -0.877817 0.375575 0.123851 -0.125154 0.0185749 0.371569 0.453692 -0.228275 -0.626867 -0.566414 -0.287618 -0.793748 -0.6 -0.150205 0.98149 0.141878 0.748777 0.689532 -0.13994 0.0515118 -0.98537 0.162187 -0.0407102 -0.619111 -1.37265 -0.646935 -1.1498 -1.28184 -0.485063 0.830483 0.99379 0.488644 -0.171676 -0.0858796 0.58988 0.86892 0.753274 0.944908 0.0076568 0.967712 0.600469 2.37412e-006 0.352426 0.487725 1.07319 0.971585 -0.388142 0.524492 0.40364 -1.09123 -0.313971 0.282137 -0.926919 -0.63827 -0.301594 0.715255 0.0349649 -0.909811 0.561322 -0.953032 -0.382363 -0.482445 0.425507 0.353202 0.103544 -0.676538 -0.588567 -0.121894 0.860206 0.326837 -0.148349 0.55355 -0.79734 0.785767 1.41598 0.266923 0.133434 0.11737 -0.144508 0.646737 1.07258 -0.237281 0.857616 1.12954 0.840581 0.859358 -0.161503 -0.36679 0.112032 0.248265 0.63656 -0.26569 0.930486 0.826756 0.800815 0.866691 -0.56 -0.103342 -0.788232 -0.430028 1.02632 -0.620105 0.503831 1.01731 0.89092 0.452885 0.99803 0.700237 0.656599 -0.0530537 -0.143312 1.18285 1.0308 -0.0381988 -0.48383 0.946565 0.442089 -0.00949761 0.959167 0.997751 -0.766301 1.05088 0.316909 -0.229976 -0.810012 -0.0599223 0.834858 0.269802 0.44303 1.03271 0.708247 0.12946 -0.21659 0.644935 0.204828 -0.104676 -0.219208 0.113964 0.0180448 -0.00850296 -0.573395 -1.01933 0.412022 -0.551695 0.0426301 1.03795 -0.607019 0.00439962 -0.200294 -0.00455494 0.85681 0.730001 -0.150012 -0.039922 0.0147409 -0.135763 0.583261 0.625281 -0.305034 -1.05254 0.312683 -0.0626635 0.192103 -0.571119 0.430738 -0.37758 -0.830853 -0.543659 0.102106 1.23958 1.00113 -0.176798 0.523054 0.697531 0.726486 0.702671 -0.732747 -0.133668 -0.369521 0.400001 0.44 -0.69 -0.699554 0.0919232 0.247306 0.239725 0.684924 -0.185821 0.585413 -0.167157 0.0848152 -0.252616 -0.250873 -0.818605 0.270187 -0.181753 0.905567 0.132332 -0.138879 -0.173973 0.951055 -0.52535 0.563998 -0.875519 -0.0248946 -0.16351 -0.0264044 0.01 0.23 0.21 0.950102 -0.652907 -0.657178 0.8672 0.0564001 0.605333 0.501646 -0.62819 0.24049 0.68179 -0.233957 -0.3804 -0.273655 -0.621418 -0.726898 0.135086 -0.333613 -0.146683 0.348846 0.0968786 -0.195295 -0.505891 0.21901 0.71253 0.280013 -0.86 0.68 -0.02 0.450133 0.211165 0.839705 -0.848379 0.180903 -0.154418 -0.618683 -0.444291 0.227918 -0.312497 -0.0561273 0.514752 0.502465 -0.111447 0.589419 0.208126 0.368441 1.027 -0.604132 0.368956 0.380003 0.354124 -0.635134 -0.467099 0.720013 -0.06 0.38 0.84 -0.07 0.893322 -0.107347 0.704968 -0.299454 -0.977985 0.875687 -0.765139 0.279129 -0.282409 -1.00966 -0.924593 -0.566292 -0.450261 -0.904131 0.336436 0.019986 -0.93931 0.735039 -0.0241869 0.392823 0.3229 -0.93 0.7 -0.17 -0.52 -0.87 0.08 0.99 0.75 -0.02 0.480052 0.789523 0.159611 -0.530621 -0.320994 -0.210892 -0.197873 -0.385913 -0.563088 0.734808 -0.529498 0.93216 -0.106344 -0.832072 -0.341979 -0.0405115 0.822415 0.522422 -0.161358 0.74 0.84 0.24 -0.9 0.6 -0.18 -0.93 -0.01 0.58 -0.35 0.22 0.99 0.83 -0.68 -0.84 -0.81 -0.047533 0.812467 0.96 -0.69 0.13 0.07 0.55 -0.5 0.56 -0.72 -0.04 0.01 0.01 -0.07 0.98 -0.97 0.73 0.28 0 -0.43 -0.0700033 -0.710003 0.570017 -0.160566 -0.499536 0.250531 -0.118837 -0.58397 0.603131 0.0306006 0.746974 0.874143 0.7191 -0.268889 -0.332894 -0.155363 -0.7719 0.141408 -0.13378 0.926194 0.08 0.15 0.65 0.05 0.85 0.72 -0.439999 -0.408854 -0.658875 0.149978 0.319938 -0.327021 0.632516 -0.326965 0.197783 -0.531077 0.612877 -0.157356 0.0270423 0.0768833 0.514748 0.0749505 0.265682 0.277193 -0.431363 0.0263932 0.467492 0.98503 -0.58105 -0.168817 -0.04 -0.68 0.44 -0.7 0.0693758 0.630541 -0.30886 -0.708708 -0.370059 0.786526 -0.221003 -0.0665053 -0.0926677 0.936191 0.20056 0.829733 0.825905 -0.568625 0.93921 -0.249642 0.0027605 0.0881874 -0.559042 -0.0677751 -0.315828 0.939105 -0.750417 -0.683386 0.0870653 -0.08 0.89 0.05 -0.650624 0.650162 -0.847723 -0.472196 -0.506066 -0.120595 -0.678617 0.808797 -0.0140662 0.818647 0.275142 -0.38515 -0.368905 -0.187349 -0.593663 0.0996236 0.0476364 0.99308 0.365724 0.677936 -0.749059 1.00853 0.420727 -0.569419 0.214932 -0.873212 -0.97 -0.93 -0.330739 -0.870731 -0.538527 0.80563 -0.181939 -0.63111 0.675085 -0.292986 -0.0805273 -0.604076 0.249495 0.577789 -0.31739 -0.977753 0.873995 -0.714373 0.587327 1.57894 0.926289 0.684436 -0.00038266 -0.33801 -0.481504 -0.588844 0.838252 0.873299 -0.4 0.510037 -0.0251784 -0.915594 -0.971489 0.715398 0.288941 0.728935 0.850475 0.834042 0.136533 0.237942 -0.324358 0.605893 -0.701004 0.532372 0.849563 0.392849 0.819435 -0.296921 -0.165008 0.269032 -0.222643 -0.279164 0.806537 -0.813586 0.281852 -0.38514 -0.43 0.0367665 -0.135849 -0.637132 -0.908033 0.652635 0.622312 -0.109272 -0.171596 -0.0972675 -0.538871 0.280655 0.033048 0.37138 0.407354 0.668547 -0.600078 0.0170458 0.577046 -0.394756 0.578 -0.622617 0.00485278 0.361672 0.709518 0.59603 -1.00477 -0.201102 0.145605 -0.211939 -0.648833 -0.522587 0.870554 0.0576823 -1.06561 -0.0987225 0.872105 0.553135 -0.677522 -0.615132 0.984179 -1.07684 -0.030723 -0.62017 -0.797926 -0.776782 -0.0378346 0.181483 -0.742143 -0.403935 -0.0548113 0.599172 -0.269062 0.467581 -0.255325 -0.203532 0.13 -0.245543 -0.0700275 -0.746173 0.00400019 0.492775 -0.434403 0.127491 -0.0145731 -0.79795 -0.39817 -0.426664 -0.41986 0.451298 0.461624 -0.0874224 -0.21947 0.468254 -0.826682 0.102949 0.812888 0.133832 -0.84241 -0.443407 -0.723119 -0.870504 -0.20438 -0.9386 0.970001 -0.816093 0.135212 -0.614483 -0.200792 -0.607009 0.25666 0.532688 0.0931106 1.03211 -0.544591 -1.12722 -0.245084 0.776338 0.160127 -0.664 1.11747 -0.742027 -0.460052 -0.82159 0.545822 -0.500936 -0.588352 -0.105746 -0.148346 -0.615253 -0.29699 0.693826 -0.0700691 -0.557524 -0.0966724 -0.307433 -0.443349 0.394133 1.23627 -0.182878 0.0417643 0.328148 -0.636209 0.281786 -0.719123 0.178169 -0.459248 0.0482932 1.62248 0.396188 0.617417 0.319732 -0.130735 -0.183854 0.506472 -0.076848 -0.226536 0.20978 -0.489375 -0.845533 0.58993 0.351539 0.349231 0.87854 0.921323 0.7825 0.9944 0.860998 -0.0675242 -0.617086 0.524674 -0.162815 0.699947 -0.0973542 1.0431 0.944886 0.668304 0.200338 0.91932 0.903309 -0.107855 0.300332 -0.382133 0.593727 0.784833 0.0769294 0.387503 0.157765 -0.28 0.331654 -0.410106 0.728262 0.55324 -0.393847 -0.677237 -0.419382 -0.511905 -1.24972 -0.939501 0.184172 0.660216 0.820762 -0.316549 -0.849225 -0.389083 0.938255 0.245739 0.927186 0.403003 0.712037 0.346047 1.04614 -0.142359 -0.604299 -0.0664841 0.504987 -0.369955 -0.990004 0.993879 0.0927067 -0.92934 0.592977 0.204678 0.802665 -0.946237 0.372473 -0.697355 0.994851 -0.100238 -0.624745 -0.539229 0.925515 -0.195263 -0.126289 -0.271637 0.867564 0.40141 0.416082 0.16465 -0.751181 0.728896 0.614604 -0.378762 0.835729 -0.889982 -0.380001 0.52406 0.184371 0.530462 0.459684 0.574184 -0.320005 -1.15754 -0.254253 0.237045 1.03006 -0.116839 -0.256025 -1.04885 0.183458 -0.578043 0.746934 0.76236 -0.38328 -0.724619 -0.364648 0.607169 0.201679 0.211734 -0.567363 -0.957684 0.510898 -0.250027 -0.739995 0.0910115 0.493203 0.635893 0.613839 -0.223642 -1.08667 0.684042 -0.372296 -0.00194287 -0.645903 -0.791439 0.324099 -0.466603 -0.685783 0.226579 -0.347185 -0.0180628 0.355161 0.833046 0.604143 1.04303 0.471108 -0.205074 0.598927 -0.634801 0.440899 0.89 0.429721 0.469857 -0.10144 -0.801759 -0.202029 -0.812069 -0.212525 -0.485512 -0.150909 0.075829 -0.186556 0.374725 0.217752 -1.60597 -0.294786 0.709312 0.127038 0.983889 -0.379307 0.321476 0.189163 -0.761475 0.632829 0.528468 0.0612986 0.311337 0.485083 0.652717 0.849126 -0.15455 -0.132291 -0.815768 0.540512 -0.597379 -0.767326 0.161416 0.307292 0.380414 -0.464358 0.812805 -0.292262 -0.643578 0.359476 0.703668 0.739928 0.373947 0.716382 0.294156 0.62791 0.120061 0.89385 -0.577837 -0.748387 0.310507 -0.651846 -0.67059 -0.810292 0.966238 -0.935522 1.08165 0.204338 -0.229703 -0.396052 -0.118688 0.525325 0.79537 0.398052 -0.527745 -1.10882 -0.846546 -0.320121 -0.275484 -0.303751 0.0412491 0.541083 -0.126976 0.308501 0.949244 -0.526125 0.112535 -0.783639 0.8606 0.00385999 0.76 -0.96 0.530639 0.775417 0.890705 0.382115 0.912905 0.920182 -0.420004 0.921325 0.355068 -0.38461 0.302021 -0.742184 0.830154 -0.819544 -0.492205 0.201711 0.809104 0.463617 1.14561 0.136431 0.00679241 -0.386998 -0.404926 -0.144651 -0.8155 -0.0500053 0.409977 0.859977 -0.799971 0.273266 0.663079 1.06146 0.523331 -0.0871649 1.49763 0.942351 0.5516 0.0648303 0.930346 0.57339 -1.08717 -0.0819025 0.642163 0.896774 1.00303 -0.366003 -0.425503 0.752456 0.916792 -0.886679 0.62407 -0.0860657 0.0446235 -0.5 -0.220023 -0.650023 0.561032 -0.492547 -0.442107 0.0717097 0.788714 -0.0697392 0.305253 -0.854362 0.778633 -0.0227978 -0.370301 -1.20298 -0.180261 -0.646008 0.862752 -0.705708 1.12059 0.0293765 0.686588 -0.127203 0.306226 -0.12341 0.420614 -0.438997 -0.641877 0.07 -0.45 0.24 -0.682561 0.814204 0.552249 1.00858 0.951121 0.725309 -0.577939 -0.881487 -0.548921 -0.437421 -0.49763 0.271285 0.730945 0.0525909 0.513294 0.431099 0.54852 -0.0301477 -0.103279 0.698834 -0.261085 0.595907 -0.902705 0.914553 -0.13645 0.35 0.68 0.73 0.400025 0.00691406 -0.561571 -0.283192 1.18245 0.407798 0.583187 -0.221863 -0.884844 -0.464281 -0.304287 -0.953717 -1.27393 0.486662 -0.368488 -0.081958 0.735749 -0.0248738 -0.167373 0.593417 0.0643032 0.112049 -0.91679 0.590772 -0.306651 -0.22 -0.99 0.52 -0.229939 -0.489208 -0.542974 -0.454514 -0.643942 -0.264189 0.0740675 0.544395 0.38124 -0.533904 -0.302548 0.995047 0.743714 -0.444178 -0.720771 0.0347401 0.958533 0.705099 -0.644871 -0.664673 0.88655 0.769979 -0.290919 -0.786645 0.25335 0.45 -0.13 0.15 -0.13 -0.39985 -0.807949 0.949133 0.259067 -0.642549 -0.337248 0.188711 0.656349 -0.953528 -0.958325 -0.0611741 -0.312048 0.17548 0.00517143 0.61719 0.402313 0.946847 0.974243 -0.438102 0.42343 -0.25035 -0.369998 0.12 0.03 0.35 -0.26 -0.1 -0.46 -0.14 0.649997 -0.960244 0.558062 0.617178 -0.643137 0.427255 0.0750819 -0.421769 0.234305 0.0407012 0.493045 -0.186627 -0.246572 0.0353539 0.509797 0.169909 0.369593 -0.213308 -0.422911 0.869863 -0.15 0.88 -0.89 0.27 0.63 -0.99 -0.55 -0.54 -0.18 0.1 -0.97 0.71 -0.31 -0.16 -0.69 -0.09 0.0201453 -0.719855 -9.27644e-007 -0.850001 -0.42 -0.9 -0.2 0.38 0.57 -0.64 -0.95 0.5 0.71 -0.69 0.15 0.46 -0.38 -0.15 -0.34 0.63 -0.51 -0.319996 -0.169976 -0.219968 0.654317 -0.715655 -0.139661 0.77999 0.920055 0.250273 0.760329 0.809682 0.199555 -0.44001 -0.91916 0.52182 -0.128667 0.54129 0.810019 -0.469997 0.47 0.32 -0.35 -0.29 0.88 -0.65 -0.47 -0.63 0.750001 0.640083 -0.787231 -0.926652 -0.781344 0.596325 0.918412 -0.723368 -0.327196 0.729703 -0.499687 -0.682797 0.00220251 0.766143 0.775869 -0.589305 -0.250854 -0.55044 0.504523 -0.408364 0.820004 0.38 0.89 0.62 -0.83 -0.72 0.835996 -0.0840264 0.399983 0.854196 0.0750429 -0.271929 0.430091 -0.736601 0.972045 -0.779504 0.394209 -0.840868 -0.332021 0.325002 0.810007 -0.0966345 -0.561345 -0.809114 0.362247 0.931 0.381068 -0.188891 -0.912592 0.951426 -0.340136 -0.3 0.03 -0.4 0.605996 -0.792127 -0.817347 0.440124 -0.728347 0.545508 0.410176 -0.155176 -0.501773 0.119192 0.486962 -0.183401 0.560213 0.143744 -0.275178 0.266887 0.684669 0.323342 -0.885259 -0.156795 -0.32813 0.363527 0.853232 0.986863 -0.139347 1.00001 -0.54 0.07 0.145994 -0.452409 0.733032 0.1061 -0.0648296 -0.327931 -0.402041 0.106238 -0.203089 0.467729 -0.0875965 -0.813945 0.670151 -0.203408 -0.509028 0.320941 -0.363609 0.269794 0.63558 0.556118 0.605068 -0.160617 -0.37342 -0.273728 -0.105613 0.619987 0.35 0.47 0.629999 0.0772856 0.715221 0.722307 -0.259608 -0.412032 -0.0918543 0.805418 -0.203714 0.206025 0.164906 0.450662 -0.470767 0.0653164 -0.705369 0.695196 -0.631445 -0.716138 0.181986 0.0507626 -0.246381 -0.578537 -0.640001 0.752808 0.568321 -0.70876 0.78 0.847782 0.449927 0.870017 -0.817874 -0.30982 -0.63742 0.783913 -0.455863 0.746257 0.404434 1.04355 -0.403452 -0.802824 0.0602681 0.449113 -0.531808 -0.72424 -0.483899 0.557613 0.596095 0.826173 0.955383 -0.497269 -0.889624 -0.436768 -0.684694 -0.919776 -0.929946 0.230005 0.240475 0.717687 -0.713189 0.230069 -0.307397 -0.36625 -0.443622 -0.202539 -0.327511 0.806117 0.917214 0.132878 0.219174 -0.474998 0.838858 0.207359 0.276187 0.756095 0.127399 0.902317 -0.402846 0.0722394 0.218975 -0.260289 -0.0849183 0.128258 0.49 0.290036 0.444168 0.156336 0.983202 1.01041 0.62512 0.816684 0.665634 0.771279 -0.252659 0.59958 1.11296 1.00287 1.1149 -0.256801 0.859864 -0.261613 -0.72982 0.705009 0.960478 -0.380607 -0.72854 0.231768 0.617847 -0.898622 0.950688 0.449267 -0.54 -0.136204 -0.148187 0.28728 -0.275167 0.0722077 -0.234194 0.754296 -0.170369 0.0918897 -0.872853 0.347408 -0.883559 -0.588625 0.233652 -0.552629 -1.34577 -0.12942 0.851076 -0.790609 -0.0335402 0.288677 0.67173 -0.577923 -0.474952 -0.478708 0.111754 0.327972 -0.879989 -0.105976 -0.245957 0.114289 -0.215055 0.904619 -0.564013 0.846496 0.642721 -0.00955699 -0.916728 0.298168 0.300929 -0.160873 0.421281 -0.852092 -1.17946 0.749057 -0.964759 -0.752027 0.921282 -0.399005 -0.877528 -0.759105 -0.65569 0.571782 0.523251 0.536678 0.570023 0.180413 0.390847 0.254119 -0.834709 -0.868564 -0.138222 0.519517 0.18173 -0.995226 0.534919 -0.483201 0.286824 0.877615 0.473433 0.257432 -0.100154 0.844303 0.0476388 -0.112971 -0.969418 0.353701 -0.0670745 -0.69243 -0.462036 0.218234 0.0952033 -0.249888 -0.349998 -0.979696 0.150736 -0.799579 0.640622 -0.350833 -0.0135902 -0.765709 0.436257 0.312586 -0.63986 0.706407 -0.216267 0.71048 0.665159 0.653477 -0.607208 0.916519 -0.01491 -0.566217 -0.548674 -0.481861 -0.0907279 -0.180194 0.770299 0.231995 -0.149477 -0.0400038 -0.54 0.060001 -0.339495 0.92032 0.984687 0.509953 0.562357 -0.414419 0.2927 -0.979523 -0.0577071 0.690274 0.0179075 0.059775 0.967233 0.788586 -0.286574 0.959869 -0.154556 0.19649 0.199814 -0.010955 0.964697 -0.693041 0.080746 0.397748 0.849944 0.219996 0.95 -0.699999 0.413123 0.068109 0.758437 -0.0646986 0.923555 -0.563324 0.654474 0.313844 0.609786 -0.549636 0.476739 -0.291547 1.0602 0.614112 0.140752 0.503024 0.564701 0.540727 0.994179 -0.376506 -0.594031 -0.419206 -0.311464 -0.338797 0.829668 -0.810348 0.61 -0.639997 -0.966361 0.517516 -0.443068 0.305256 -0.626932 0.292636 -0.713986 -0.639737 -0.633372 0.435331 -0.83819 0.37349 0.438695 -0.360333 0.709482 -0.330546 0.659006 -0.287158 -0.385812 0.434308 -0.426362 -0.434226 -0.808998 -0.821849 0.399565 -0.120138 0.87 -0.889997 -0.816142 0.353809 0.488243 -0.763712 -0.262437 0.379979 0.686324 -0.509205 0.0612463 0.11856 0.505648 -0.565018 0.955224 -0.184774 1.04352 -0.584192 1.08397 0.975426 0.936958 -0.251614 -0.0135069 0.820629 0.798813 0.822354 0.579096 0.429418 -0.219945 0.710051 0.698236 -1.03029 0.0998567 -0.319901 -0.145463 1.02639 0.0513464 -0.368908 -0.910905 -0.285143 -0.655363 -0.484207 -0.660583 0.0800458 0.456538 -0.217508 0.193047 1.15585 -0.382237 0.83028 0.545485 -0.712342 0.445528 0.966726 0.749198 -0.559915 -0.839947 -0.668184 0.895652 -0.889394 -0.210055 0.423582 -0.63413 -0.831212 -0.0188947 0.542492 0.502093 0.763381 -0.380241 -0.966416 -0.690965 -0.184891 -0.210549 -0.776899 0.997035 0.0957984 -0.731599 0.919257 0.0450509 0.82738 0.759827 -0.33453 0.929898 0.29041 0.66 -0.31824 0.392475 -0.627876 0.836131 -0.549447 -0.195475 -0.794726 0.0618225 -0.692705 0.734693 -0.779903 0.345495 0.726581 -0.566638 1.22092 -0.550804 -0.429828 0.896494 1.09528 -0.242564 0.309089 -0.882559 0.223412 -0.354296 0.0927261 -0.119525 0.18 -0.270001 -0.650001 0.419584 0.76215 0.291286 0.807036 -0.785482 0.839543 0.304391 0.180804 0.782817 0.0375971 -0.70216 -0.457185 0.210657 0.181815 0.687005 -0.787854 0.842552 0.0917426 0.903273 0.945893 -0.487153 0.822055 0.19932 -0.758516 0.690463 0.97 0.359999 0.219999 -0.138349 0.354669 -0.0845646 0.793867 -0.525811 -0.737391 -0.0434087 0.304648 0.891608 0.430488 -0.718282 -0.757065 -0.483275 -0.231264 -0.773765 -0.447231 -0.047942 -0.828158 0.0898389 -0.760071 -0.886779 0.0647823 -0.892712 0.998048 0.800143 -0.39 -0.65 0.43 0.460969 -0.964465 -0.750628 0.66709 -0.819685 -0.702806 -0.5323 0.794378 0.429222 0.837047 -0.469284 0.838229 0.304489 -0.423287 -0.71701 -0.8922 -0.57298 0.0769444 -0.0384316 -0.169223 0.490755 0.617046 0.220775 -0.390888 -0.94957 0.6 -0.4 0.18 -0.900731 -0.547872 -0.460971 0.122524 -0.528405 -0.654964 -0.0246229 -0.450196 -0.201741 0.696546 0.884071 0.301786 0.307259 -0.414997 -0.865486 0.325553 0.933565 -0.458821 -0.214053 -0.0419866 -0.578377 0.440422 -0.965988 0.833505 0.639999 -1 -0.71 -0.73 -0.39 0.600032 0.990503 -0.271095 -0.0971104 -0.771043 -0.294811 0.0833512 0.402683 -0.725214 -0.168201 0.274778 -0.100838 -0.186448 0.319677 0.455433 -0.0893777 -0.417791 0.41634 -0.0475999 0.550925 0.374854 -0.128905 0.0699998 -0.75 -0.17 -0.22 0.57 0.54 -0.849905 0.15007 -0.929821 -0.245964 0.312473 -0.479592 -0.194249 -0.107817 -0.025773 -0.256164 0.710319 -0.761155 -0.87377 0.298681 -0.74113 0.0966148 -0.598278 -0.294128 -0.189678 0.510331 -0.900579 0.53 -0.94 -0.81 0.69 -0.26 0.77 -0.57 0.19 -0.949936 -0.379667 -0.389563 0.270524 0.370187 -0.30993 0.690052 -0.360343 -0.508606 -0.353855 -0.762903 -0.376008 0.352231 -0.176824 -0.939281 -0.829978 -0.259103 -0.539682 0.440328 -0.895353 -0.1 -0.96 -0.72 -0.36 0.41 0.33 0.52 -0.75 0.33 0.95 0.6 -0.73 -0.48 -0.36 0.47 0.12 0.159975 -0.140025 -0.19 -0.24 0.59 -0.6 0.85 0.13 0.47 -0.57 -0.19 0.09 0.84 -0.94 -0.06 0.83 0.68 0.93 -0.16 0.13 0.680015 -0.519653 -0.840489 -0.569221 -0.888018 -0.445541 -0.468569 0.116035 -0.52908 -0.772408 0.886888 0.946409 0.605019 0.232769 0.843463 -0.661899 0.310727 0.109596 -0.850128 0.0298713 0.08 -0.66 -0.72 -0.44 -0.27 -0.94 -0.940012 0.979928 0.209997 -0.0207071 -0.119908 0.991127 -0.287806 0.941287 -0.857825 1.00409 0.340742 -0.681553 -0.626757 -0.736153 1.03618 -0.0018296 -0.0826537 -0.652127 -0.781859 -0.660099 -0.508657 0.564343 -0.237119 -0.191281 -0.39 0.32 -0.24 -0.66 -0.307173 0.772234 0.200162 -0.530045 -0.645374 0.426765 -0.4408 0.816453 -0.755366 0.0704336 -0.29537 0.359048 -0.34315 0.351512 1.11663 -0.676836 1.23356 0.382729 -0.591143 -0.0746729 -0.643243 0.262844 0.319613 -0.409932 -0.319349 0.86 -0.05 -0.65 0.962894 0.475854 0.748422 -0.789233 -0.893511 0.349571 -0.409895 -1.07183 -0.645985 0.203308 0.572048 -0.299625 0.101868 0.559093 -0.0769881 -0.297658 0.64867 -0.582057 0.381987 -0.458323 0.00108224 -0.793376 0.516196 0.933355 0.810634 -0.69 -0.96 -0.41 -0.305338 -0.674702 -0.613612 0.690435 -1.09892 0.27733 0.823082 0.235673 -0.0572288 0.672567 -0.183105 0.336857 -0.376242 0.731888 -1.07082 -0.583798 0.624715 -0.866189 -0.297171 0.345643 -0.730141 -0.330999 -0.924301 -0.592928 -0.01287 0.279939 -0.95 -0.889958 0.872274 0.41772 -0.992016 -0.173014 -0.00366989 0.377171 -0.273227 0.479123 0.811669 -0.165612 0.96322 -1.04744 -0.60761 0.929534 0.938019 -0.928365 0.676656 -0.711569 0.0224049 -0.550436 -1.27292 -0.122173 0.800155 -0.709155 -0.735619 -0.859968 7.01933e-008 -0.749959 0.650386 0.0497154 0.0618801 0.0500951 -0.968485 -0.21839 0.609341 0.185574 0.969486 -0.329004 -0.0150962 0.804684 0.608682 0.528694 0.14477 0.292066 0.307021 0.145238 -0.479788 -0.709235 0.890653 0.896184 0.589748 -0.0721625 0.516134 0.891275 -0.410387 -0.712984 -0.110861 -0.823664 0.796998 -0.449091 -0.0383585 0.0755994 -0.261667 -0.495188 0.171856 0.222676 -0.435252 -0.804658 -1.00959 1.16908 -0.346515 -0.116505 0.201155 0.63043 0.384529 -0.550182 0.464796 -1.26677 0.715182 0.650542 0.0101705 0.628741 -0.0100002 -0.472488 -0.460254 0.610289 0.286374 0.282718 -0.076935 0.105123 -0.600525 0.360959 -0.586243 -0.468616 0.567944 0.863203 1.46209 0.246881 0.20359 -0.959665 -0.674634 0.169496 0.106407 -0.300888 0.0407123 0.581376 -0.845273 0.85466 0.767067 -0.945666 0.0800011 -0.219118 0.577347 -0.117443 -0.626204 0.527068 -0.829042 -0.723165 -0.762997 -0.246326 0.204733 -0.489406 0.192453 -0.553426 0.908586 -0.533178 -0.276484 -1.07165 -0.854555 -1.26683 -0.372239 -0.0769722 -0.0936873 0.8041 0.748543 0.738617 -0.341489 -0.250974 0.710009 -1.0088 -0.383568 -0.333396 1.0352 -0.800554 0.365501 0.252735 0.631047 -0.789131 1.04089 0.190802 0.450706 -0.535211 -0.00201461 -0.904502 -0.990598 -1.18168 -0.817596 0.869555 -0.849823 -0.550008 0.202051 0.666148 -0.134179 -0.130011 0.549218 0.908508 -0.749858 0.460414 0.378566 1.02501 -0.440623 -0.72934 0.654984 -0.247929 0.909447 0.999662 0.48209 0.44131 0.677762 0.331627 -0.597133 0.633621 -0.757017 0.280857 -0.639592 0.700572 -0.755331 -0.989411 0.262673 -0.378294 -0.254075 0.252999 0.371672 0.892237 -0.11 0.851082 -0.318559 0.529072 -0.329272 -0.795063 0.0550282 -1.01616 0.747223 -0.582366 -0.39231 0.462214 0.402723 0.751687 -0.888252 -0.636481 0.17628 0.58283 0.818153 -1.14699 0.723334 0.266525 0.297745 0.425082 0.395374 -0.732029 -0.226024 0.879516 0.91 0.872854 0.392108 -0.915941 0.110047 0.621694 0.470025 0.135745 0.764435 0.727551 0.087454 -0.772077 -1.20648 -0.907166 -1.02877 -0.77756 -0.115018 0.329688 -0.210653 -0.249548 0.282405 0.111896 1.02085 0.776041 0.145323 0.572337 0.0530707 0.339504 -0.259649 -0.207446 -0.0978521 0.769992 0.554572 -1.27656 -0.397191 0.324219 0.709074 -0.552756 -0.82927 -0.87791 -0.865871 0.0259667 -0.475433 -0.410791 -0.479521 0.0937059 0.322895 -0.417788 -0.759063 0.238176 -0.532998 -0.100396 -0.106662 0.0624473 -0.657757 -0.282376 -0.279649 0.603836 0.793204 0.565532 -0.501525 0.369753 -0.700068 -1.07017 -0.136323 -0.242466 0.200415 0.700059 -0.29297 -1.21294 -0.117456 -0.540834 -0.00136949 0.974753 0.314201 0.373037 -0.183998 -0.549014 1.39256 0.902088 -0.673961 -0.589629 -0.940567 -0.938408 -0.05 1.00463 0.665448 0.849227 -0.384001 -0.853629 -0.203408 0.867074 -0.508775 -0.284824 -0.450956 0.568775 -0.85191 0.102539 0.716767 1.21684 -0.010001 1.2485 0.391334 -0.930371 0.781289 -0.601268 0.706882 0.0871416 0.492639 0.425377 0.247305 0.239673 -0.449914 0.340793 0.500638 0.292391 -0.571065 0.807336 0.600756 0.678906 0.182964 -0.135452 -0.450338 -1.11642 -0.904185 0.0576875 0.996624 -0.432674 -0.00754986 -0.608007 0.671427 0.690658 -0.450283 1.25888 -0.376206 -0.686295 0.603119 0.714244 0.619951 -0.396008 -0.73 0.521566 -0.511097 -0.461551 0.520928 -0.591797 -0.856697 0.38012 0.52075 -0.19172 0.660965 -0.531411 0.528476 -0.595286 -0.223359 -0.0225742 0.941986 0.830809 -0.412357 -0.627879 0.547825 0.308297 -0.466444 0.118809 -0.293193 0.792373 -0.280983 -0.870454 0.84 0.0699541 0.0324459 0.803661 -0.890663 -0.0221073 -0.675865 -0.573887 -0.774388 -0.290513 -0.739923 -1.22744 0.201331 0.200684 0.786034 0.586323 1.3133 0.667685 1.17054 -0.612772 0.25885 0.697584 0.593256 -0.641347 -0.526485 0.960952 0.0430309 0.459942 0.51 -0.241178 -0.255712 -0.150434 0.743393 -0.598756 -0.899593 -0.509863 -0.52845 -0.0831404 -1.30309 -0.639508 0.152059 -1.17228 0.821464 0.3926 0.587493 -0.839955 -0.211761 0.746039 -0.211247 -0.428644 -0.00391901 0.718215 0.834023 0.257816 0.227063 0.129934 0.33 -0.631149 -0.9648 -0.175535 0.568953 -0.407224 0.415904 -0.36074 0.292739 -0.821492 -0.555769 -0.33246 0.181568 -1.0629 -0.0564938 -0.413002 0.638459 0.309327 -0.229571 -0.445384 -0.261563 -0.623899 0.737577 -0.750317 0.68865 0.0358427 -0.302853 0.299934 -0.46 -0.68 0.872884 -0.00558084 -0.840667 0.511489 0.804261 0.362377 -0.346698 -0.20234 -0.871924 -0.965804 -0.521171 0.124461 -1.12472 0.118193 0.0780525 0.538043 -0.375808 0.0885605 -0.078366 -0.275346 0.378091 -0.777942 -0.133273 0.0545885 -0.711671 -0.79 -0.07 -0.76 0.72417 -0.274438 -0.42683 -0.328274 0.915197 0.711914 -0.138582 -0.500469 -0.888031 0.1125 -0.556286 -0.503537 -0.532535 0.123514 0.11915 0.890542 0.67037 -0.954461 0.264373 0.116226 -0.623937 0.507276 0.561128 -0.835569 -0.31004 -0.08 -0.54 0.92 0.759097 -0.738855 0.594043 0.157561 0.640422 -0.374758 0.805369 0.995786 -0.96167 -0.353518 0.457675 0.240392 0.423981 1.22243 0.415051 0.611352 -1.17682 -0.417206 0.560993 0.67255 -0.33786 0.769721 0.42742 0.58987 -0.670005 -0.58 0.01 -0.2 0.58 0.47005 0.897467 -0.88696 0.761728 -0.111833 0.685074 -0.748279 0.592428 0.990142 -0.342528 -0.177311 0.306753 -0.467878 0.585212 -0.784955 0.640234 -0.481908 0.801554 -0.423433 0.942344 -0.26886 -0.0100104 0.15 -0.94 0.17 -0.59 0.75 -0.67 -0.32 -0.560057 0.949666 -0.464049 0.936109 -0.286541 -0.126337 -0.859719 -0.749134 -0.425728 -0.640058 -0.0408575 0.745279 0.197134 -0.666732 -0.26397 0.0658295 0.176503 -0.817492 0.985371 0.0601124 -0.42 -0.01 -0.61 -0.58 -0.25 -0.38 0.2 0.21 0.81 0.82 -0.3 0.28 -0.12 -0.67 0.39 -0.22 -0.00125987 0.39874 -0.149726 0.710274 0.33 0.66 0.44 -0.76 -0.18 -0.44 0.69 -0.73 -0.74 -0.18 -0.42 -0.89 0.19 -0.99 0.59 -0.01 -0.0700004 0.749937 -0.100577 -0.0906012 -1.00072 -0.753599 0.774499 -0.545537 -0.0884899 0.396455 -0.0992432 -0.0917927 0.586327 -0.236876 -0.849607 -0.79968 -0.0974077 0.291074 0.456962 0.60485 -0.55 0.32 0.71 -0.02 0.04 -0.9 0.05 -0.230002 0.730395 -0.389977 0.758542 0.086955 0.111936 0.0608162 0.219116 0.669814 -0.78939 0.361445 -0.536301 1.15892 0.205933 0.855305 0.0805827 0.545432 0.832569 -0.997528 -0.552286 0.995099 0.759875 0.190009 -0.53 -0.52 0.54 0.8 -0.566748 0.693717 0.568841 -0.0022879 0.939325 -0.356814 0.0208281 0.886793 0.504934 -0.179599 0.00138004 0.940342 0.451849 1.11185 1.20354 0.629958 0.0763784 -0.0253312 -0.0352764 -0.303443 0.269919 -0.114607 -0.855578 -0.910096 -0.720078 -0.06 -0.95 -0.8 0.393244 0.987578 -0.924885 0.1397 0.628538 -0.7566 0.768575 0.319732 0.36769 1.04829 -0.116979 0.269368 0.769801 1.14908 0.308191 -0.218564 0.714493 0.0123944 0.388581 -0.8714 -0.468785 1.05866 0.0769614 -0.293695 0.760671 -0.539158 0.17 0.97 -0.626895 -0.796297 0.697405 -0.926082 -0.943014 0.667861 0.0844937 -0.0904966 0.666152 0.710221 -0.311222 0.674242 0.476074 -0.682609 -0.350531 0.823377 0.980466 0.653872 -1.08168 -0.360202 0.905696 -0.451204 -0.280787 -0.812181 -0.642676 0.040854 0.94 0.0299787 -0.635955 0.578614 -0.578843 -0.762044 0.825485 -0.621477 -0.582744 -0.903837 0.564549 0.329168 0.197386 0.0875646 -0.35073 0.335489 -0.139542 -0.533691 0.494077 0.32829 0.397405 -0.975548 0.00713817 0.098499 0.183273 -0.765198 -0.853509 0.0596144 -0.39 0.518724 0.906284 0.769637 -0.0295785 0.701332 0.959078 0.163795 -0.640669 -0.641697 0.325891 0.0148564 -0.137945 -0.585263 -0.0388156 -0.327465 -0.586387 -0.125828 -0.398403 -0.0785867 -0.918573 0.289525 -0.372158 -0.168462 -0.818 -0.181665 0.00942827 0.951728 0.650002 -0.451251 0.076646 -0.151192 -0.940056 -1.04074 -0.274024 0.392563 0.58518 -0.399749 -1.2097 -1.35906 0.246983 -0.998159 -0.0289144 0.384716 0.0658728 -0.592987 -0.460661 -0.199005 0.478782 -0.859619 -0.0694149 -0.490601 0.482749 0.502715 -0.09812 0.300048 0.87 -0.893344 0.859747 -0.661327 0.801524 0.709791 0.716506 -0.740008 -0.536622 0.389962 -0.818869 -0.0167709 -0.716939 -0.589512 -0.833277 0.327033 -0.647187 0.189455 0.608846 -0.31293 -0.356826 0.451587 -1.14608 0.619343 0.129753 -0.198504 0.890705 -0.245792 0.37 -0.492867 -0.357254 0.572529 0.632784 -0.208693 0.0633583 -0.0596427 -0.413621 -0.746993 -0.885291 -0.540867 -0.0722208 -1.10396 -0.815799 0.8125 -0.52056 1.29464 0.113091 -0.36498 -0.577382 -0.27395 0.348535 0.673816 -0.47742 0.139254 0.0753555 0.739899 0.64 -0.999849 -0.43314 -0.747927 0.399856 0.741857 -0.586648 -0.895193 -0.075939 -0.208644 -1.25036 -0.0829711 -1.09733 0.122504 0.83787 -0.248374 0.299044 0.859445 0.648773 -0.823247 -0.552041 0.603002 0.0220599 -0.245473 -0.119402 0.347222 0.928181 -0.0703098 -0.29 -0.66997 -0.426633 -0.625581 0.316558 -0.365364 -1.04264 -0.245802 -0.137318 0.575009 -0.442944 -0.266119 -0.297511 -0.994216 0.374936 0.422195 -0.684579 0.11191 0.954266 0.162217 0.192583 0.532678 0.844505 -0.0189246 -0.282584 0.708906 -0.645502 0.692433 0.36 0.67003 0.384518 -0.206286 -0.615808 0.421386 -0.332232 -0.634401 -1.27737 0.755721 -0.540343 -0.415146 -0.0464075 -0.803356 -0.662586 -0.403677 0.428634 0.792641 -0.385989 -1.06206 -0.951937 0.470198 1.03217 0.500245 -0.455878 0.797964 0.571538 -0.459859 -0.46 -0.0399704 -0.999447 -0.563002 -0.83258 -0.101233 0.792651 -0.600314 0.56068 -0.683871 1.14817 0.656117 -0.743389 -1.07953 -0.926932 -0.107948 -0.749926 0.380702 -0.376925 -0.462661 0.702828 -0.201425 0.688971 -0.482699 0.738557 0.0643559 -0.0923958 0.310143 -0.88 0.66003 0.555662 -0.889028 0.501313 -0.196004 0.205327 0.701225 0.0137563 0.502466 -0.745618 1.07626 -0.109988 -0.35668 0.564549 0.827741 -0.901981 0.481387 0.390205 -0.0257842 0.531283 -0.604976 0.357786 -0.818281 -0.274159 0.233914 0.0636019 0.54001 -0.0200002 -0.759961 0.238484 -0.860375 -0.82072 0.210368 -0.0356383 -0.0118584 -0.371041 -0.211423 -0.0840691 0.142134 -0.944201 0.247834 -0.264399 -0.180002 0.159457 -0.776633 -0.507764 -0.328193 -0.542631 0.463962 -0.373532 0.171186 -1.03246 0.376176 -0.669875 -0.0165548 -0.74 0.720038 -0.552738 -0.259957 0.501495 0.312236 -0.803484 0.383475 -0.424664 0.492455 1.04297 0.164345 0.258929 0.677394 0.736944 -0.325271 0.0789473 -0.785712 -0.547314 -0.434437 -0.438661 -0.563152 -0.0883861 0.816645 0.649484 -0.785323 0.660697 0.326693 -0.619896 0.800217 -0.649723 0.206859 0.754779 -0.830004 -0.238058 0.142963 -0.0766048 0.669788 -0.149439 1.30431 1.18379 0.871784 -0.640268 -0.975112 -0.0266676 -0.982034 -0.332564 0.673516 0.702996 -1.00565 -1.04548 -0.544383 -0.62475 0.467426 1.00765 -0.704455 0.460173 0.680172 -0.480451 -0.433496 -0.775875 0.480457 -0.175294 -0.502036 0.963258 -0.334623 0.0129536 -0.422581 0.822405 0.0889875 -0.256802 -1.09853 -0.0979602 0.401379 0.584349 -0.519913 0.605769 -0.477557 0.709046 0.883691 -0.613224 0.291266 0.0705606 0.465089 0.09 -0.53004 -0.657732 0.152388 -0.52594 -0.338501 1.01752 0.0819383 0.0251706 0.517988 0.416079 -0.53521 1.00737 0.650785 -0.650336 -0.606363 -0.838795 -0.873279 -1.35705 -0.293126 0.655441 -0.240419 0.689857 -0.731987 -0.27575 0.0547567 0.868793 0.43 -0.919966 -0.450006 -0.239018 -0.376965 -0.191731 -0.522213 -0.227338 -0.808635 -0.219472 -0.168491 -0.933263 0.607765 -0.776395 0.484883 -0.0362891 -0.382303 0.215981 -1.16488 -0.862216 -0.865638 0.621469 -0.114842 -0.243532 0.243364 0.024562 -0.718901 0.479018 0.190354 0.750034 -0.629966 0.335385 0.253195 -0.966186 0.739183 -0.418585 -0.419727 -0.275348 0.911936 0.283115 0.477286 -0.928414 0.16667 0.284327 1.38349 -0.574621 -0.123846 -0.191127 -0.0759769 0.0471444 0.488051 0.121871 -0.128318 -0.810392 -0.51294 -0.303887 0.560354 -0.1 -0.07 0.342929 0.186054 0.330087 0.950394 0.273089 -0.279337 -0.873345 -0.176763 0.00336237 0.934584 0.983788 0.452354 0.353795 0.31575 0.247655 0.143837 0.0471833 0.883782 -0.267722 0.803221 -0.470447 0.27578 0.694778 -0.754161 0.541634 0.18 -0.27 0.9 0.129956 -0.669631 0.515654 -0.981408 0.137677 0.0681465 -1.02355 -0.997478 0.227725 0.122743 0.191967 0.802036 0.102883 0.614747 -0.282402 -0.438061 0.621571 1.30015 1.12137 0.279801 0.139097 0.0400279 -0.805392 0.764925 -0.856987 0.55 0.63 0.14 -0.47 0.28062 0.0754349 -0.855491 0.546552 0.589468 0.757817 -0.220991 -0.847061 -0.926595 -0.766539 1.15935 -0.660405 0.358913 0.650383 0.996263 0.336456 0.467206 -0.0389842 0.597876 -0.65519 0.3047 -0.891354 0.360003 0.170003 -0.1 0.84 0.4 -0.21 -0.940321 0.36162 0.671135 -0.892325 0.781727 -0.648643 0.787963 0.344057 -0.695836 0.200187 -0.957156 -0.934196 0.498905 -0.0495223 0.612289 0.00281849 -0.338482 0.695287 0.0538756 0.732957 0.259467 0.259975 0.15 -0.7 1 -0.79 0.54 -0.35 -0.97 -0.0999985 0.0900354 0.818586 0.555826 -0.864218 0.506917 -0.416853 -0.104183 0.279187 0.559157 -0.82061 0.298199 0.848629 -0.250756 0.760224 -0.349774 -0.790246 -0.630587 -0.650555 -0.0606803 -0.5 0.33 0.4 0.54 0.04 0.35 -0.03 -0.77 -0.29 0.62 0.42 -0.51 -0.3 -0.49 0.95 0.16 0.909917 -0.740083 -0.330024 -0.710024 -0.65 0.7 0.52 -0.9 -0.35 0.79 -0.78 -0.62 -0.01 -0.84 0.45 0.41 -0.01 -0.93 -0.28 0.47 0.640001 0.760139 0.238372 -0.302212 -0.25695 0.416798 0.421674 0.709631 -0.728333 -0.914342 0.170156 -0.503749 0.321029 0.463948 0.104705 0.0724197 0.78626 0.162671 0.881674 -0.213087 0.1 0.97 -0.54 0.02 -0.82 -0.99 -0.26 0.816882 0.266451 -0.200702 -0.363654 0.89601 -1.00645 -0.109578 0.246536 -0.283721 -0.725766 -0.337038 -0.239568 -0.405809 -0.856381 0.239866 -0.378547 0.59764 0.639521 -0.309175 -0.138795 0.863877 0.395272 0.905676 0 0.66 0.53 0.98 0.860082 -0.881033 -0.764698 0.798959 -0.881909 -0.580161 0.804015 0.0869885 -0.772727 0.226595 -0.354476 -1.38562 -1.14231 0.736708 1.00337 0.290057 -0.486564 1.0362 0.414166 -0.243393 -0.204941 0.111222 0.0619122 0.449485 0.191883 -0.41 -0.28 -0.21 0.660195 0.716638 -0.104436 -0.439436 0.87643 -0.114439 0.566786 -0.361681 -0.529677 -0.747257 -0.715029 -0.890047 -0.314465 -0.2337 -0.191456 0.798486 -0.000649275 -0.644127 0.141171 -0.303879 0.942789 -0.139385 -0.210728 0.190071 -0.0867365 0.811949 -0.97 -0.08 0.306871 -0.299733 0.0213962 0.625212 -0.871349 -0.68856 -0.012412 -0.461041 -0.522096 1.08377 1.15479 1.01369 0.760488 0.566393 -0.453692 0.349333 0.871542 -0.670847 0.214649 0.0779748 -0.624994 -0.709831 0.490951 -0.532814 -0.336184 0.201753 0.1 0.355022 0.946821 0.13704 -0.856048 -0.324952 -0.0276286 0.215451 0.603069 0.511898 0.666886 0.687879 1.11655 1.05689 -0.512989 -0.110718 -0.186948 -0.705809 0.830298 0.394954 0.237036 -1.03034 -0.723689 0.74254 -0.209324 -0.727819 -0.907359 0.0168134 0.910001 -0.716795 0.594905 0.355402 0.480031 -0.527143 0.789131 0.0757702 1.11967 1.07456 1.40951 1.59411 0.843583 0.223061 0.892042 0.0652585 -1.31212 0.421082 -0.127439 0.33682 0.631743 0.927939 -0.606593 -0.335026 1.12541 -0.935566 0.0983642 0.391888 -0.739867 -0.323713 0.835018 0.892303 0.791706 0.732746 1.26396 1.1278 0.627832 0.107254 0.462975 0.348227 -0.395811 0.187922 -0.00237046 -0.497153 0.0692822 1.06963 0.75557 0.387836 -0.896301 0.586189 0.388276 1.24981 0.111359 0.274784 0.175001 0.67596 -0.47 0.596387 0.663785 -0.156506 0.256789 -0.404721 0.33683 0.0159065 0.554335 0.712374 -0.108279 0.43608 -0.861245 -0.72778 -0.369704 0.131537 0.100713 -0.101406 -0.0507847 0.835555 0.484559 0.572464 -0.184043 0.168582 -0.527075 -0.0918707 -0.0916253 0.401998 -0.96999 0.597723 0.818665 -0.831564 -0.760316 -0.651006 0.0661135 -0.0694372 -0.32775 1.0249 0.484199 -0.32524 -0.631018 0.909915 0.593692 0.520623 -0.13244 -0.443373 1.08669 -0.116159 0.286724 -0.339867 -0.193468 -0.729569 -0.909011 -0.932313 -0.515835 -0.880151 0.320361 0.367975 0.81573 0.373759 0.236499 0.81886 1.45951 0.260499 -1.00087 -0.489867 -0.363158 0.0287637 0.95915 0.770056 0.635763 -0.686014 0.201388 0.185429 -0.00740708 -0.175151 -0.15585 -0.117016 -0.0832977 0.0670551 0.997436 -0.283051 0.303367 -0.241323 -0.619621 0.11797 -0.103698 -0.287857 0.226158 0.544827 0.104688 0.00844488 0.683161 -0.657076 -0.660966 0.341659 -0.326392 -0.377777 0.249706 -0.345661 -0.668989 0.417347 0.438217 -0.460492 -0.0273187 0.213898 0.027794 -0.106321 -0.714023 0.444774 -0.56001 0.0958266 -0.77 0.361335 -0.646934 0.066912 0.733767 0.0946581 -0.0647608 -0.640006 -1.28595 -0.258046 -0.288999 -0.187127 -1.0541 -0.000178789 -0.383388 0.132133 -0.539607 0.915324 0.255036 -0.466108 0.208825 0.0182459 0.474722 0.271344 -0.630189 0.505617 -0.361997 0.30669 0.420019 -0.0594176 -0.262507 0.689432 -0.17976 0.729505 0.0031452 0.279334 -0.859481 0.256186 0.465509 0.587789 -0.00222048 -0.195835 -0.403263 0.835014 0.714951 -0.855128 0.0245427 0.731815 0.224701 -0.758053 0.89703 -0.634699 0.112469 -0.966595 -0.352685 0.926638 0.100004 -0.609956 -0.970484 -0.265735 1.06483 -0.781484 -0.817643 0.156218 -1.11435 -0.941634 0.63047 0.154351 -0.880114 0.221351 0.688054 0.384108 -0.053289 -0.818954 -0.0107728 0.172511 0.365813 -0.163069 -0.0042973 -0.40891 0.597224 -0.976424 -0.705165 -0.24177 -0.990015 0.0700036 0.518815 -0.404367 0.914359 0.196342 0.656884 -0.168605 -0.581977 0.246358 -0.870456 0.128954 -0.925976 -1.04047 -0.469178 0.628964 0.632926 0.328291 -0.657776 0.656427 -0.183765 0.781167 0.69685 -0.247631 0.781896 -0.0658892 -0.511672 -0.312481 0.62 -0.669415 -0.922664 0.336136 0.466815 -0.895618 0.44511 0.926552 0.818044 -0.532134 -0.875059 -1.13092 -0.646184 -0.569684 -0.840688 -0.726472 -0.177642 -0.528757 0.20433 1.24659 -0.323754 0.825987 -0.102304 -0.349398 -0.236708 -0.199444 0.37168 0.286171 0.299771 0.549466 -0.0878027 -0.463623 0.361836 0.63902 -0.602566 -0.114484 -0.824736 -0.218664 -0.130797 -0.00239532 0.796064 -1.12345 -0.598478 0.136772 0.0138232 0.927726 -0.254738 0.972405 0.640429 -0.654883 0.740253 -0.264852 -0.704641 -0.674902 0.100198 0.652419 -0.801102 0.736765 0.901777 -0.54965 -0.636283 0.592156 -0.63284 -0.330826 0.159589 -0.7012 0.0731261 0.750026 -0.374845 -0.229566 -0.566342 0.0827046 -0.138602 1.20424 -0.690684 0.0511096 0.288734 0.0698487 0.0328649 -0.729054 0.588929 0.574774 0.160522 -0.946355 -0.21 0.870118 0.911148 0.906208 -1.01124 1.12766 0.243994 0.764965 0.226105 -0.460672 -0.992447 0.32564 -0.884628 -0.935033 -0.895379 -0.849328 -0.978085 -0.783805 0.132427 -0.132224 -0.0209153 -0.100645 0.172861 -0.434301 -0.772007 -0.387225 0.511007 -0.0100092 0.619997 -0.300004 0.228101 0.796383 -0.276548 0.222334 0.80941 -0.363629 0.438516 0.406425 0.444991 0.0741844 -0.95114 0.205808 0.385647 -1.07613 -0.942381 -0.205936 -0.89475 -0.0458744 0.066665 -0.449972 -0.605154 0.521709 -0.718199 -0.614571 0.647896 0.84 0.459997 -0.850003 0.51994 0.38883 -0.475562 0.954558 -0.773535 -0.244879 -0.420508 1.01334 0.517138 0.576951 -0.673279 0.572169 0.438533 0.704088 1.09429 0.00477583 -0.471142 -0.151995 -0.265266 -0.116906 -0.779181 0.407379 -0.721234 -0.489252 -0.516159 0.88 0.22 -0.58 -0.0108595 0.700502 1.14111 0.768342 0.55231 0.417502 0.356546 0.0611829 1.08978 0.444391 -0.343771 0.264275 0.0668284 0.289589 0.249461 -0.0577371 0.74286 -0.638822 -0.654618 0.387284 0.996969 1.09471 0.508396 -0.592636 0.582182 -0.1 0.25 -0.85 0.860171 0.593007 -0.242695 0.737442 -0.0834985 -0.646792 -0.683598 -0.839225 -0.0453619 0.149697 0.437807 -0.0463429 0.609455 0.664401 -0.140255 -0.16438 0.270234 0.324593 0.597132 0.746686 0.243776 0.780885 0.917596 0.787437 0.827761 0.43 -0.88 0.69 -0.280461 0.427046 -0.307088 -0.273558 -0.785626 -0.39625 0.875413 -0.233063 0.864718 0.380335 0.496836 -0.17794 0.688732 -0.77624 0.70146 -0.61685 0.541991 -0.967027 0.928662 -0.182456 0.194084 -0.440734 0.118943 -0.983164 -0.401804 -0.16 0.63 0.66 -0.99 -0.540848 0.0171765 -0.196914 -0.613279 0.861285 -0.0402602 -0.851689 0.0690483 0.171042 0.542617 -1.21937 -0.472042 0.368223 0.0773485 0.64245 -0.616957 -0.171744 0.14112 -0.351753 -0.223007 -0.597711 -0.638878 0.48 0.95 0.67 -0.08 0.46 0.33 0.37 0.159968 -0.650287 0.084834 -0.434707 0.330942 0.938966 0.685503 -0.232508 -0.88402 0.770207 0.853169 -0.45799 0.0422632 -0.942461 -0.0342495 -0.977403 -0.0110045 0.517027 0.190788 0.360226 -0.01 -0.78 -0.57 -0.53 -0.11 0.2 0.13 -0.05 -0.81 0.17 -0.2 -0.45 -0.89 -0.53 -0.03 0.68 -0.244773 0.135227 0.770021 -0.959979 -0.84 0.62 -0.31 0.62 0.49 -0.02 -0.34 -0.39 -0.17 -0.07 -0.58 0.76 -0.75 0.18 0.83 0.87 0.95 0.489832 0.829851 -0.252146 0.0484713 -0.481477 -0.396154 0.0798025 0.81243 0.408037 -0.357131 -0.937871 0.881645 -0.510157 1.00049 -0.0402992 -0.500301 -0.450116 0.89235 -0.86765 0.55 0.16 -0.4 -0.22 0.82 -0.89 0.72 -0.509998 -0.29998 0.521636 -0.542882 0.640861 -1.00313 -0.339041 -0.898321 -0.945552 -0.890998 -0.298081 -0.607265 0.194447 0.42125 0.81244 -0.474733 -0.351946 0.913308 0.982893 -0.932649 -0.674376 -0.658599 -0.487546 0.28 -0.79 -0.77 -0.15 0.580118 0.351999 -0.315523 0.869908 0.92253 -0.366823 -0.203303 0.221872 1.08828 -0.624851 -0.0734941 -0.921626 0.337409 -0.614043 0.156821 0.339996 -0.283569 -0.411744 0.47672 -0.444981 0.635668 -0.550027 -0.448722 0.38378 0.536455 -0.71 -0.37 -0.620001 0.790418 -0.476727 0.451407 -0.864084 -0.257547 -0.332781 -0.90287 -0.876501 0.0755919 0.839131 1.22942 -0.530295 -0.666479 0.801539 -0.171477 -0.508413 -0.441254 0.0287053 0.834912 -0.437031 -0.267019 0.924385 -0.521146 -0.654552 -0.0324583 0.211339 -0.51 -0.27 -0.360345 -0.441287 0.836029 0.936861 0.770544 1.1021 0.520311 0.205756 0.399182 -0.172241 -0.254429 0.675894 -0.66033 0.673521 0.972032 1.08733 0.345147 0.0425218 -0.411893 -0.84691 -0.63131 -0.554643 0.128518 -1.00433 0.352541 0.883158 -0.6 -0.693084 -0.771088 -0.0266446 -0.094004 0.831138 0.505923 -0.497194 -0.345888 0.822392 -0.63051 -1.04206 0.606739 0.631387 -0.368971 0.798505 0.106513 0.463999 0.777183 -1.24513 -0.639965 -0.886844 -0.336667 0.267974 0.706544 -0.387704 0.201645 0.778339 -0.19 0.0286826 0.25141 -0.502216 0.287061 -0.335161 -0.273729 -0.493218 0.696144 -0.663382 0.939388 0.496479 -0.734227 0.609255 1.19976 0.106876 1.68185 0.00764154 -0.874011 0.377117 -0.691792 0.143743 0.0919643 -0.782351 -0.349826 0.60594 -0.344934 0.309557 0.0208336 -0.96933 -0.784889 0.45589 -0.247741 -1.03265 -0.25591 -0.234207 -0.893475 -0.894147 0.546759 -1.06813 0.448954 0.512227 0.662825 0.57402 -0.200488 -0.458093 -0.00256555 -0.710211 -0.140827 -0.591781 -0.823268 0.328229 0.271826 -0.848145 -0.700353 0.872844 -0.0300036 -0.0374773 -0.839531 0.706598 -0.355427 -0.452081 -0.162039 0.425415 0.914104 -1.28003 -0.174061 -1.27465 -0.254381 0.858606 0.425418 -1.01505 0.692636 0.671448 -0.070711 0.331509 0.228776 -0.20586 -0.203284 0.173892 -0.179324 0.484659 -0.54763 0.603431 -0.420006 -0.321665 0.843821 0.617996 -0.588134 0.5605 -0.653138 -0.683017 0.521954 -0.234 -1.15486 0.763823 -0.56867 1.01126 1.17984 -0.403127 0.60395 0.0350634 -1.06691 0.440018 -0.670308 0.683345 -0.0151794 -0.897107 -0.289777 0.873596 0.80469 0.0101065 -0.14007 -0.972279 0.13515 -0.799952 0.173731 -0.697138 0.306622 -0.746119 -0.191449 0.131668 -0.250127 0.447686 -0.639676 0.0638825 0.168178 0.0464581 -0.188434 -1.12149 -0.323286 -0.212606 -0.668915 0.148994 0.333662 0.243086 0.843218 0.679955 0.00810178 0.0898696 -0.451099 0.150362 0.484229 0.247063 0.076122 0.575092 -0.4309 -0.674149 0.811979 -0.358644 0.191253 1.02324 0.715023 0.0446978 0.97398 -0.673729 -0.172208 -0.518447 -0.346362 -0.606444 -0.587997 0.737763 0.035461 0.230711 0.067945 -0.55302 -0.21656 0.802018 0.76 -0.321074 -0.205634 -0.968323 -0.416396 -0.231152 0.1363 -0.717711 -0.0462233 0.0542315 0.544127 0.060244 1.12933 0.0972311 -0.545687 -0.283419 0.354246 0.173772 0.571371 0.900878 0.925623 0.98342 0.362337 0.0895163 -0.074483 -0.0345639 0.0717159 0.552066 -0.47 -0.0856563 0.701916 -1.01136 -0.761115 -0.942314 -0.00913825 -0.435873 0.177374 -0.622584 1.07927 0.938119 1.12368 0.520685 -0.89566 -1.08999 0.322857 0.420409 0.263227 -0.035054 -0.399699 0.276955 -0.298132 -0.954955 -1.15172 -0.697229 -0.591417 -0.807856 0.879944 -0.215188 0.138785 -0.938808 -0.405863 0.0966973 0.830981 1.44565 1.07455 0.937443 1.40647 -0.672897 0.302511 -0.780294 -0.340884 0.481585 -0.012788 -0.2628 -0.479536 -0.787705 0.714957 -0.512086 0.656907 -0.464649 -1.19693 0.745654 0.944428 0.33028 0.539944 -0.706828 0.792044 0.940682 0.72199 0.768801 0.763181 -0.518734 1.27525 -0.022989 0.626674 0.584886 0.434354 -0.231706 -0.655428 0.646084 -0.0533555 0.328714 -0.16383 -0.558823 0.841632 0.954354 -0.131015 0.308689 -0.604996 -1.02518 0.956461 -0.649639 0.14 -0.846832 -0.50108 0.361604 -0.813895 -0.454032 0.515364 -0.254414 1.03481 0.732871 -0.464872 0.191729 -0.186762 -0.588458 -0.362337 -0.370541 -0.563563 0.304959 -0.656534 -1.01099 0.168256 -0.54547 0.480156 0.111651 -1.02116 0.129717 -0.418706 0.110048 0.712667 -0.160955 0.861083 -0.823578 0.337405 0.65662 -0.254445 -0.19437 0.259976 0.539011 -0.270151 -0.524356 0.630515 -0.085085 0.350824 -0.727824 0.723755 0.0714247 0.121277 -0.881923 -0.531714 -0.466991 0.80588 0.334986 0.00627851 0.543482 -0.842058 -0.440047 -0.490713 -0.683901 0.330268 -0.598473 -0.532935 0.302399 0.394629 -0.0873574 -0.671661 -0.426016 0.273245 0.848714 -0.730182 -0.319811 -0.922284 -0.747188 -0.653171 -0.521971 -0.826917 0.308282 0.348617 -0.0670448 -0.260732 -0.118673 0.376621 0.765514 -0.0771763 -0.220214 -0.02 -0.040004 -0.479902 -0.757463 -0.473415 -0.533124 -0.536367 0.59516 -0.755024 1.01208 -0.530877 -0.147167 0.823392 -0.213867 0.652001 -0.0420365 -0.198367 0.900373 -0.404685 0.88026 -0.728192 -0.796089 -0.0535507 0.0100514 -0.727994 0.268367 0.359653 0.449982 0.789966 -0.490013 -0.243921 -0.639342 0.0858316 0.332456 0.0222179 0.014664 -0.748018 -0.141906 -0.072587 0.566601 -0.875826 -0.170066 0.453301 0.674259 -0.31127 -0.0357716 0.63867 -0.16005 -0.717958 -1.04998 0.48771 -0.626206 0.909326 -0.682992 -0.299992 -0.62 -0.120034 0.919978 0.863351 -0.992372 -0.949839 0.175647 0.756429 -0.0395646 -0.372159 -0.980892 0.987598 0.376319 -0.0342226 0.235328 0.492333 0.984097 -0.306193 -0.159123 0.0904999 0.577603 -0.0390719 0.827695 0.748203 0.208659 -0.63653 0.787452 -0.897066 0.46 -0.08 0.03 -0.287109 0.960695 -0.720032 0.589391 0.860053 0.713809 0.900414 0.0291007 0.250533 -0.384875 0.258246 0.418897 -0.344927 0.952324 0.0507907 0.585717 -0.465517 -0.61572 0.637967 1.07785 0.806042 0.584127 0.884075 0.91904 -0.840424 -0.28 -0.74 -0.15 -0.992893 -0.236445 0.236171 -0.663448 -0.450921 0.0910271 0.504166 -0.37681 -0.885946 -0.548653 0.637499 -0.881347 0.612598 0.291783 0.691816 0.711572 -0.247196 1.18223 0.852957 0.66889 0.507795 0.196613 0.196303 -0.467369 -0.269499 -0.34 0.02 -0.23 0.237995 0.728388 -0.23422 -0.521149 0.0278482 0.890952 0.120282 1.15426 -0.0386463 -0.248492 0.66343 -0.503023 -0.519744 0.574659 -1.12896 -0.483811 0.750985 -0.294038 -0.148618 0.752028 1.12722 -0.830152 0.157979 -0.969592 -0.909592 0.66 -0.34 -0.66 -0.25 0.150014 -0.259711 -0.33346 -0.963569 0.294601 0.437152 0.0920222 1.24765 0.00553495 -0.255906 -0.555467 -0.362035 0.697278 -0.187297 -0.48323 -0.12154 0.926381 -0.257571 0.442845 -0.155317 0.760955 0.739613 0.279991 0.53 0.67 0.16 0.97 0.53 0.11 -0.719993 0.989993 0.532356 -0.0783712 0.72001 -0.821477 -0.938095 0.819396 0.649041 -0.464453 0.0647209 0.60082 -1.02571 -0.345541 -0.248029 0.162398 0.456423 -0.4251 -0.384178 -1.01807 -0.89 -0.78 -0.5 -0.8 0.74 0.07 0.07 -0.45 0.98 -0.87 -0.3 0.96 0.92 -0.04 0.97 -0.3 0.78 0.93 0.15 0.63 -0.11 -0.83 -0.76 0.94 0.19 0.38 0.85 -0.46 0.25 -0.74 0.94 -0.2 0.13 0.26 0.85 0.42 -0.47 -0.56 0.66 -0.14 -0.560002 0.358355 -0.190983 -0.913993 0.301874 0.681578 -0.701101 0.415654 0.234952 -0.522913 0.322496 -0.756601 0.83137 -0.539553 0.989878 0.0298847 -0.03 0.89 0.97 -0.56 0.72 -0.47 0.3 0.519737 0.409736 0.00994312 0.0395733 -0.232139 0.861047 0.772372 0.657209 0.316039 -0.893864 -0.744037 0.164787 -0.091253 0.7321 0.526006 0.79434 -0.341329 0.120707 -0.735214 -0.206924 -0.373487 0.0437612 0.309993 -0.82 -0.35 0.32 0.99 0.650029 0.0700216 -0.917787 0.24394 -0.289294 0.834401 0.357396 1.08125 -0.353615 0.174831 0.318509 -0.447619 -0.544944 -0.32033 0.225331 0.401949 0.555818 0.45265 -0.563031 0.0942292 0.0418846 -0.609165 0.0786806 0.534134 0.78748 0.18 -0.23 0.45 0.880029 0.129574 -0.0986666 0.344639 0.625282 0.926577 0.293685 0.206225 0.472994 -0.561085 1.29599 -0.377598 -0.287967 1.20804 0.816448 0.144758 0.252483 0.776963 0.9219 1.21421 0.507775 0.409814 0.959403 -0.14395 0.586521 -0.249682 0.45 -0.24 -0.0489511 0.764468 -0.0497876 -0.209885 0.460753 0.0973682 -0.0241174 0.378715 -0.501945 1.00508 1.05282 -0.421694 0.477054 0.313605 0.642875 0.209938 1.17991 0.796509 0.5736 0.948296 -0.419918 1.07334 0.348921 0.472381 -0.159321 0.0259077 -0.25 -0.969365 -0.459659 -0.274295 0.476436 -0.772303 -0.0465643 0.886294 0.108737 0.89765 -0.766337 1.28839 0.635267 0.0604308 0.517727 0.599966 -0.964365 -0.103161 -0.220935 -0.260665 0.600194 -0.0761817 0.193754 -0.106536 0.961178 0.802632 -0.498145 0.711559 0.69 0.151505 0.913856 0.0966367 0.155851 0.197476 0.900246 0.556571 -0.240845 0.766951 0.439352 0.542168 -0.482719 -0.614586 -0.708339 -0.223816 -0.378387 -0.327151 0.475719 -0.744805 -1.03094 -0.691968 -0.168466 0.516444 0.489472 0.273044 0.11112 0.769853 -0.837452 0.736813 0.0720155 0.184248 0.886661 -0.152583 -0.157169 -0.72373 -0.476098 -0.597648 -0.357589 0.00781486 0.401868 -0.915674 -0.0333183 -1.37234 -1.53429 -1.4702 -0.891824 -0.938204 0.139187 -1.23672 -0.239853 -1.15902 0.591149 -1.01101 0.116118 -0.0723443 -0.139999 0.843463 0.75953 -0.303335 -0.0648544 0.672009 0.939791 0.888386 -0.276784 0.539167 -0.131244 -0.259444 -0.201587 -0.482124 -0.954324 -0.372251 -1.85536 -1.0404 -0.832597 -1.31361 -0.424305 -0.609917 0.854974 -0.326791 -0.127613 0.0262669 -0.636293 0.193881 0.159997 0.0407158 0.817322 0.722813 0.0801165 -0.380823 -1.03049 -0.101117 0.149137 -0.179156 -0.174294 -0.0244873 -0.779974 0.101559 0.983557 0.1399 0.284755 -0.210428 0.208371 -0.6586 -0.208905 -1.06468 -0.2936 0.210353 0.0458133 0.638464 0.583611 0.179139 0.170004 0.842095 0.944025 0.94218 -0.15257 0.758166 0.0627214 -0.272079 -0.73479 -0.97406 0.855992 -0.0194592 -0.539364 0.303495 0.107348 0.120925 1.00915 0.689457 -0.298418 0.146385 -0.735552 -0.813788 -0.533358 0.530529 0.181578 0.702012 0.184497 0.730244 -0.729919 -0.169751 0.694339 -0.529232 -0.272534 0.320676 0.587273 1.29878 -0.585984 0.420346 0.104889 -0.470034 0.748013 0.990184 -0.492773 0.404616 0.966447 0.143531 0.779444 0.601221 -0.746941 1.51267 -0.909626 -0.503507 -0.00182435 0.550797 -0.312679 -0.186389 0.89 -0.959584 -0.586296 0.487822 -0.318776 0.359108 -0.214166 -0.231688 -0.231792 -0.468815 0.626471 1.02068 0.702164 -0.754802 0.649093 -0.778101 0.978962 0.429577 0.566652 0.782127 -0.188461 -0.169771 -0.11541 1.0002 1.12316 0.374484 -0.595556 -0.726436 -0.0700009 0.582015 -0.134001 0.467911 -0.145803 -0.839234 0.347144 1.00842 1.02566 -0.37469 -0.791467 -0.484123 0.143012 0.230591 1.10768 -0.0649729 0.0941677 1.2121 -0.502168 0.343632 0.502965 -0.284167 -0.449216 0.0848088 0.233593 -0.582352 -0.699945 -0.906447 0.518544 -0.958277 -0.353001 -0.204999 -0.640027 0.872916 0.210247 1.27866 0.145992 -0.156766 0.380782 0.658025 -0.441104 0.518211 0.576834 0.545748 -1.0198 -0.440693 -0.0566248 -0.376881 0.114486 -0.158459 0.906392 -0.33341 -0.430908 0.121691 -0.610693 0.281651 0.348545 -0.868129 0.453764 -0.876288 0.273297 -0.724792 -0.682034 -0.882891 0.808137 0.248301 0.195164 -0.421394 0.286892 0.129597 0.535247 0.694378 -0.025393 -0.031533 0.728163 0.287723 -0.0406004 0.921621 -0.770314 0.584123 0.625785 -0.555444 -0.671682 0.551654 -0.07 0.173708 -0.573907 0.0471191 -1.14806 -0.532609 0.654877 -1.27844 0.326431 0.483122 -0.105122 0.620824 0.0530491 0.139542 0.71639 0.183477 0.711083 1.08344 0.0980808 -0.369493 0.27266 1.20325 0.475997 1.27891 -0.50468 0.740749 -0.960846 0.672965 0.0120041 -0.378059 -0.75239 -0.922746 -0.691468 -1.13148 0.0207897 0.72261 -0.848508 -0.493336 -0.789607 0.610867 0.923975 0.792368 -0.520826 -0.0816735 0.497344 1.00315 -0.230382 -0.133106 0.243127 0.667639 -0.152516 -0.467015 1.0977 0.784721 -0.387152 -0.0426739 0.359973 -0.300761 0.806769 -0.572548 -0.383198 0.560529 0.732473 -0.152319 -0.364109 0.0766415 0.0234483 -0.931251 -0.294855 0.557288 0.319258 -0.872155 0.880641 0.369042 -0.550589 0.34717 -0.655134 -0.364408 -0.735969 -0.311066 -0.0204954 -0.658782 0.109621 -0.126926 0.79 -0.35959 -0.0294715 -0.12487 -0.51594 -0.313801 -0.231961 -0.817073 -0.338564 0.0426898 -0.106488 -0.156364 -0.152903 -0.326582 -0.570057 -1.10657 -0.0471883 -0.470586 -0.668284 0.160536 0.534737 -0.299804 0.181098 -0.723679 0.887956 0.355334 0.284764 0.749177 -0.379997 -0.559889 -0.372824 -0.46696 -1.01899 0.366298 0.279746 -0.569353 -0.108283 -0.297076 1.02992 0.670269 -0.445342 0.445522 -0.686191 0.543789 0.992617 -0.610612 0.193275 0.673467 -0.431463 0.178527 -0.417927 -0.571893 0.478444 0.0179688 -0.0970129 -0.740296 0.740003 0.610102 0.988952 0.872716 0.310503 0.921807 0.144682 0.000803605 1.15382 -0.506615 0.827398 0.116599 -0.0383601 0.667882 0.182046 0.227098 -0.768468 0.365697 -0.603687 0.480039 0.543012 0.247787 0.11181 -0.525975 0.553068 -0.915026 -0.835557 0.189704 -0.23 -0.29 0.546108 0.83474 -0.968158 -0.417647 0.0441044 -0.539163 -0.872039 -0.00161013 0.282949 -0.848649 0.0986752 0.913785 0.437935 -0.851651 -0.49287 -0.497966 0.0761551 -0.0988828 -0.555973 0.0994904 -0.347345 0.589997 0.0850164 -0.811075 1.0083 -1 -0.82 -0.58 -0.799289 0.476949 -0.769163 0.806637 -0.705633 0.434269 -0.373318 0.0430573 0.653609 -0.887331 0.242574 0.315654 -0.607381 0.0802806 -0.740508 0.0395294 0.489325 -0.285077 0.00119744 -0.777927 -0.0550966 -0.602613 -0.690443 0.986425 -0.337668 -0.52 0.92 -0.99 0.839819 0.0191733 0.661887 0.674238 -0.23508 -0.855227 0.249786 0.351539 -1.09671 -0.17746 -0.27754 -0.00367099 -0.880865 -0.324316 -0.883278 0.912705 0.817514 0.904159 0.39726 0.205702 0.0392011 -0.763165 0.136349 0.152411 -0.247669 1 -0.25 0.41 -0.15 0.229883 -0.930538 -0.911231 -0.514414 -0.342448 -0.00807735 -1.16642 -0.0704749 0.544151 -1.16557 0.325058 -0.723376 -1.28555 0.567079 -0.925069 -0.977149 -0.920128 0.122466 -0.750773 -0.248893 -0.468769 -0.962323 0.950001 -0.4 -0.67 0.27 -0.43 0.48 -0.45 -0.58 -0.129999 0.935491 -0.32844 -0.741148 0.45849 -0.843024 -0.928146 0.512774 -0.706894 0.494351 0.713538 0.329289 0.278415 -0.267368 0.842617 -0.246336 -0.720306 0.155877 0.630081 0.08 0.96 -0.7 -0.34 0.88 0.55 -0.52 -0.44 -0.28 -0.38 0.47 0.53 0.69 -0.18 0.97 -0.89 -0.866149 0.363851 0.36 0.57 0.29 -0.24 0.78 0.24 -0.78 0.52 -0.21 -0.11 -0.97 -0.83 0.69 -0.37 -0.47 0.8 -0.23 0.92 -0.819997 0.510008 0.820927 -0.268972 0.138539 0.579452 0.551835 -0.872267 -0.426561 -0.352553 -0.816837 0.374473 0.697174 -0.451914 -0.548817 -0.289106 -0.409984 -0.959962 -0.479656 0.280351 -0.09 0.79 -0.7 -0.14 0.56 0.74 0.730011 0.280968 0.0811468 -0.314474 -0.174413 0.850424 -0.952081 -0.835957 0.0704654 0.124999 -0.0507855 0.61656 -0.311132 -0.0718793 -0.31186 -0.190638 0.00233609 -0.374408 0.88808 -0.99205 -0.670485 -0.141679 0.332865 -0.897162 0.81 0.44 -0.73 0.18 0.429977 0.157611 -0.168009 0.839555 -0.734286 0.910322 -0.0578822 0.594515 0.41844 0.676924 -0.37715 0.238474 0.926448 -0.104579 0.318203 -0.390445 -0.906326 0.846035 0.54607 -0.444343 0.998018 -0.371202 -0.659474 -0.326941 0.942437 -0.47 0.06 0.64 -0.239983 0.777641 0.726466 -0.110934 -0.400437 -0.41513 0.356383 -0.648631 0.65411 0.572749 -0.0167343 0.169806 0.162384 -0.136533 0.109 0.870806 -0.552453 -0.901209 0.8616 -0.020763 -0.0179203 -0.0980221 -0.667495 1.12271 1.05873 -0.821417 0.02 0.11 -0.650276 0.925635 0.0512218 -0.345725 1.01852 -0.178646 0.493244 0.91993 0.878314 0.425918 0.862283 0.649189 -0.353651 -0.470223 -0.578209 -0.502893 -0.707777 -0.678917 -0.198317 -0.856863 0.843723 -0.701171 0.609845 -0.153928 -0.0919881 -0.876868 0.5 -0.560005 0.0149523 0.0506081 0.155594 -0.404091 0.315844 -0.348512 -0.611201 0.390551 -0.458687 0.315078 -0.501269 -0.234753 0.521769 -0.660122 -0.476169 1.37516 0.54973 0.266039 0.073707 0.72596 0.033305 -0.690956 -0.582694 -0.80811 -0.905115 -0.883723 0.15 0.480086 0.684722 -0.500847 0.840968 1.08906 -0.451582 0.307576 -0.913326 0.0353097 0.419809 0.408954 0.687767 0.0849012 0.0471613 -0.982995 0.829021 -0.112466 1.16506 1.09519 -0.358335 0.44433 0.383242 -0.455234 0.476011 -1.06933 0.838023 -0.637835 -0.0904555 -0.0285969 -0.938065 -0.337674 -0.289321 0.347592 0.157119 0.31998 0.140526 0.480999 1.00393 0.079684 -0.014942 0.12874 0.36104 -0.45852 -0.00146718 0.817621 -0.724511 0.993503 1.19349 -0.286004 -0.596728 0.655065 -0.177319 0.0885293 0.552625 0.183667 0.19 0.769511 -0.860157 -0.847835 -0.484776 -0.40348 -0.0380435 -0.661353 -0.499237 0.550541 0.42893 -0.202425 1.02482 0.350325 0.801415 0.139316 0.429074 0.976429 1.39394 -0.720088 -0.582808 0.580739 -0.578485 -0.775467 -1.02567 0.329186 0.105314 0.666727 -0.69 -0.521057 0.184679 0.553994 0.837164 0.482157 0.821677 0.133425 0.608256 0.190233 1.46856 1.05391 -0.566703 0.247971 -0.427313 -0.291577 0.14463 -0.529835 -0.114732 0.271871 0.697257 0.61596 -0.545935 0.636709 0.512064 0.0559701 -0.509261 0.90643 0.53 0.370069 -0.0266337 0.645063 0.740377 -0.5851 0.673839 0.167419 -1.01675 0.283951 0.72942 -0.143564 -0.470913 0.840467 -0.349305 0.970163 0.964067 -0.786016 0.927312 -0.131735 0.784709 0.739287 -0.838695 -0.558601 -0.729704 -0.412419 -0.657555 0.0727324 -0.87 0.869861 0.5286 -0.818403 -0.177634 0.801791 0.689329 0.855468 0.902346 0.11006 0.772396 1.25111 -0.00963679 -0.557366 0.472531 -0.209183 0.162035 -0.583497 1.20419 -0.172053 0.335292 0.461659 -0.0432021 0.309549 0.267529 0.0119033 0.5739 0.477746 -0.77 0.219866 -0.668337 0.211619 0.296066 -0.389439 -0.503906 -0.886046 -0.498787 -0.595264 0.216664 0.245682 0.577213 0.85072 0.177765 -0.42413 -0.455726 0.646889 0.589211 0.434677 0.0169692 -0.128267 -0.708669 0.237907 -0.500349 0.793199 -0.173194 0.190958 -0.96 0.640919 0.14787 -0.380865 0.321104 1.11273 0.0921794 0.223928 -0.202592 0.442158 -0.330602 -0.426298 -0.783292 -0.929834 -0.204301 0.136191 -1.29695 -0.0667595 1.25997 0.652921 -0.435102 0.359862 -0.0823066 0.336209 -0.171863 0.718263 -0.179034 0.461071 0.79 0.299959 0.0237223 -0.333609 -0.698828 -0.686438 -0.697471 -0.338697 0.656418 -0.636549 -0.0488967 -0.666167 -0.571205 -0.0755147 0.839198 -0.422022 0.0294967 0.426008 0.351556 -0.466992 -0.279382 -0.930554 -0.400479 0.310217 -0.279536 0.489895 -0.0803465 -0.0725915 -0.08 0.539866 -0.194624 -0.925202 -0.0437355 0.00976092 -0.809392 -0.0223267 -1.0439 -0.632312 -1.07418 -1.12742 -0.457362 0.368746 -1.07309 0.186499 -0.771722 0.0407697 0.471502 -1.13661 0.337894 -0.0418286 -0.527937 0.465028 0.099043 -0.872187 0.705205 0.4322 -0.08 -0.976514 -0.65577 -0.0580279 0.239838 -0.977856 0.0639078 -0.419729 -1.31555 -0.845759 -0.292262 -0.168986 -0.0430262 0.491067 -1.46461 0.737821 -0.369084 -0.179686 -0.228321 0.356937 -0.0031378 0.0889724 0.517541 -1.19519 0.161457 -0.335639 0.72304 0.557347 0.704417 0.353377 -0.617191 -0.369494 0.35878 -0.86948 -1.05008 -0.194209 -0.252872 -0.259387 -0.755244 0.565017 -0.643553 -0.329575 -0.0417336 -0.142081 -0.302929 0.647968 0.142525 -0.868365 -0.197122 0.621827 -0.382251 -0.593738 -0.0808376 -0.888036 -0.453383 0.948648 -0.160242 0.200297 -0.115116 -0.0120143 -0.176122 -0.123266 -0.958905 0.505769 -1.00119 0.553691 -0.937374 -0.227466 -0.892147 -0.857855 -0.116213 -0.647485 -1.04339 0.366108 0.61285 0.397466 0.475553 -0.593211 -0.979133 -0.872228 0.42588 -0.985055 0.425426 0.0904008 0.32 0.940532 -0.815359 -0.970019 0.318082 -0.586034 -0.171093 -0.278378 0.523913 0.835613 -0.108723 -0.912924 -1.22468 -0.195571 -0.537256 -0.341449 0.79362 -0.381806 0.257427 -0.444893 0.299656 0.651453 -0.499396 0.243543 -0.026524 -0.737248 0.743407 0.679999 -0.91 -0.0600108 -0.482049 0.292674 -0.3052 0.640095 0.218321 -0.245033 -0.617687 -0.398051 -0.0983596 0.38818 -0.475538 0.897532 0.384176 -0.366057 1.21058 -0.444726 -0.87669 -0.321894 -0.329928 -0.228067 0.820075 0.31589 -0.500244 0.940824 0.215834 0.89 0.0199997 -0.94 0.0270273 0.328626 0.0424564 -0.985496 0.797457 -0.110219 0.743395 -0.0335802 -0.28206 0.52522 0.162879 0.98065 0.420556 0.0871377 -0.865233 -0.93565 0.879444 0.420751 0.809256 -0.425735 0.82458 0.605518 -0.883041 -0.392426 0.961536 -0.95 -0.22 0.97 -0.486082 -0.0151155 0.540051 -0.359556 0.718452 0.65725 0.850229 0.523382 -0.771231 0.0395582 -0.186905 0.573265 -0.162945 0.772791 0.492023 -1.01042 0.263221 0.781023 1.12385 -0.69292 -0.532783 0.157363 -0.639489 0.866244 0.10924 -0.44 0.56 -0.47 -0.0817948 -0.134317 0.448551 -0.397904 0.112736 -0.159374 0.116793 0.242968 -0.199998 0.142587 1.26019 0.97376 0.411255 1.21051 0.861687 -0.118214 -0.36787 -0.60921 -0.898713 0.455251 1.14465 0.167437 0.911282 -0.590493 -0.751446 0.91 -0.32 -0.81 -0.03 0.790676 0.80031 0.495948 -0.151433 -0.130014 -0.20447 -0.116805 0.343211 -0.376529 1.22755 0.0698143 -0.350565 0.0777923 0.0119388 -0.391502 0.755973 0.982882 0.751592 -0.734299 0.882389 -0.096377 0.580177 0.528004 -0.132125 -0.05 0.1 -0.37 -0.45 0.260001 -0.153821 -0.0868666 0.902564 0.0579044 0.405645 0.733947 -0.0822123 0.467645 0.319183 0.0796009 -0.744149 0.161318 -0.63233 0.633526 1.03163 0.938205 -0.439579 0.379982 -0.831436 -0.779257 0.0167846 0.86 0.48 0.5 -0.05 -0.51 -0.91 -0.22 -0.29 0.309985 0.13117 -0.228297 0.49487 0.614797 -0.47121 0.135151 -0.841004 0.851037 0.736871 -0.0731884 -0.0250436 -0.376334 -0.219096 -0.609313 -0.572821 0.287158 0.946643 -0.620091 -0.83 0.09 0.82 0.6 -0.9 0.82 0.54 0.5 -0.8 0.98 0.74 0.45 0.32 0.9 0.16 -0.55 0.850001 0.780001 0.97996 -0.0800395 -0.74 -0.95 -0.07 0.52 0.97 -0.98 -0.47 -0.54 0.14 -0.66 -0.81 -0.48 1 -0.22 0.53 -0.58 0.81 0.63 0.3 -0.491168 0.829095 0.678978 -0.883916 0.41954 0.280718 -0.203664 -0.03334 -0.191172 -0.899805 0.00800854 0.465519 -0.675299 0.250365 0.179812 0.469406 -0.900001 0.23 -0.96 -0.2 -0.67 -0.49 0.46 0.59 -0.00171977 0.422508 0.891441 -0.354538 -0.625437 -0.547809 0.716175 0.347686 -0.326592 0.102106 0.209403 0.865926 -0.485396 -0.26046 0.39207 -0.819773 -0.0301785 -0.0485771 -0.42459 -0.713368 -0.259196 -0.772662 0.0606377 0.41 -1 -0.67 0.21 0.33177 -0.531226 -0.431854 -0.468327 -0.781226 -0.0349906 -0.564898 0.806343 -0.255874 -0.252298 -0.677867 0.230399 0.117561 -0.740278 -0.673331 -0.616468 0.945948 0.925103 0.406262 0.818433 0.260092 0.794638 0.543837 0.634695 0.837536 -0.03 -0.85 -0.609996 0.961798 -0.0606516 0.681801 -0.877725 0.819259 -0.254999 -0.254071 -1.03646 0.553108 -0.758162 0.50717 0.345986 -0.518598 0.411125 -0.419646 -0.372985 0.915812 -0.48608 0.791229 -0.37053 -0.279644 -0.825924 -0.212647 0.16607 -0.707765 0.557658 -0.88 0.73 -0.916113 0.411693 0.711841 -0.085521 0.621703 -0.0661563 -0.83761 0.554264 -0.349307 0.0395775 -0.662469 -0.663087 0.350424 -1.00172 -0.423468 -0.434678 0.80596 0.594276 0.510205 -0.379625 -0.0330191 -0.161146 -0.088894 -0.294309 0.572389 0.673904 0.6 0.740032 -0.671271 -0.649454 0.456201 0.979044 -0.0866932 1.02386 0.146219 0.371033 0.772763 -0.247709 0.333536 -0.0110203 -0.114927 0.240026 -0.931551 -0.637775 -0.101593 0.776159 -0.941106 -0.740553 -0.342356 0.618083 0.64988 0.379562 -0.932723 -0.223555 0.55 -0.00986827 -0.948376 0.91261 0.19903 -0.238274 0.807011 0.0835435 0.15923 0.362132 -0.687744 0.363215 -0.460649 -0.142661 0.42538 0.507378 0.698174 0.372544 -0.29006 -0.587689 0.579167 -1.2866 0.102413 -0.835894 1.04127 0.521391 -0.845814 0.0580635 0.764437 -0.747858 0.712323 -0.274936 -0.0844709 -0.2703 0.54228 1.01791 0.824422 0.650834 0.722053 -0.563731 0.460641 0.203905 -0.501891 -0.985651 -0.0533895 -0.666154 0.0483294 -0.335887 -0.538421 0.482855 0.187943 -0.787825 -0.733277 -0.908735 0.664085 -0.819011 0.910012 0.272938 -0.432411 1.00739 -0.0797042 0.336051 0.591578 0.681124 0.604458 -0.528118 0.736503 1.2727 0.84249 -0.0554517 0.597534 -0.658545 -0.46365 -0.974014 -0.697623 0.108842 -1.01653 -0.777376 -0.212747 0.567749 0.773001 0.327772 -0.323749 0.998685 -0.470074 -0.275013 -0.181827 0.852518 -0.510302 -0.308355 -0.594776 -0.972178 -0.614836 -0.190192 0.869408 -0.487089 0.52334 1.2618 -0.847403 -0.513654 -0.0317859 -0.884664 0.586756 -1.14047 -1.26115 -0.0912124 -1.22385 -0.124423 0.893537 0.0152813 -0.394783 0.751656 0.369932 -0.230459 -0.374493 0.819773 0.973516 1.10856 0.543985 0.183312 0.760941 -1.07192 -0.335465 0.621945 1.51605 0.76025 0.4919 1.17676 0.148518 -0.46796 0.513238 0.284822 -0.910116 0.44896 -0.186374 -0.0456157 0.0686548 0.863954 0.00129948 0.320605 0.900537 -0.707787 -0.523448 0.0524456 -0.327332 1.24177 -0.295941 0.614124 0.385707 -0.124097 -0.352046 0.152049 -0.154849 0.319 1.13335 0.490612 -0.4641 0.456217 1.14374 0.633718 0.0647987 -0.606384 0.40943 0.31827 0.737051 0.161132 -0.899426 0.732101 0.560001 -0.828004 0.658086 -0.907525 0.0595757 -0.169537 0.519933 -0.332968 0.239115 -0.0151708 -0.652832 0.710074 0.179968 -0.52946 -1.00594 -0.445362 0.478154 -0.584088 0.974944 1.42211 0.492607 -1.06098 0.156764 -0.270718 0.318298 0.450086 -0.24785 -0.0484457 0.890006 -0.0159288 0.302918 0.499372 0.481543 -0.0942267 0.189326 0.0181931 0.186828 0.464543 -0.512539 0.182635 0.531585 -1.36845 0.11803 0.700895 0.0268537 0.676376 0.939122 0.148659 0.137476 -0.751781 -0.112356 0.954172 -0.512044 -0.163645 -0.728039 -0.35857 -0.130083 -0.566822 1.00722 -0.202761 0.549155 -0.517578 -0.5219 0.52214 0.290814 0.609971 -0.716771 0.694338 -0.695825 -0.546677 0.541568 -0.200594 -0.0689239 0.233478 -0.146805 1.11769 1.12206 0.843008 0.0498447 -0.634694 0.816183 0.317637 0.322198 0.293537 0.149911 0.135196 0.983864 -0.0540779 0.12018 -0.842358 0.58041 0.138392 0.0135938 0.232858 -0.278019 0.0146617 0.118541 -0.781708 -0.0261612 -0.87785 -1.02363 0.734212 1.07068 0.23933 -0.431977 0.581226 0.00952681 0.778937 0.929642 -0.936398 -0.98235 0.211549 -0.45 -0.120837 -0.244343 0.18673 0.334112 0.303111 -1.19155 -0.753837 -0.782989 -0.0203039 0.268399 0.583546 -0.307625 -0.70127 0.382199 0.84599 -1.31928 0.22015 -0.470325 0.859633 0.536019 -0.709145 -0.265192 0.980906 -0.42639 0.0812645 0.845269 0.880192 -0.422653 0.564184 -0.820872 -0.361414 -0.974305 -0.108488 -0.461702 -0.692652 -0.0959516 -0.243847 0.259792 -0.728557 0.29102 -0.0381163 -0.948289 0.307007 0.651712 0.553428 -0.700753 0.891058 0.305493 0.399912 0.00926757 -0.852269 -0.24778 0.176995 0.867916 -0.636112 0.569997 -0.670062 0.986703 0.0595912 0.834218 -0.674903 0.358086 -0.0346773 -0.82236 0.514939 0.388023 -0.382045 0.303636 -1.01394 0.325366 0.0201009 -0.108755 0.619535 0.298987 0.661954 0.049615 -0.612171 -0.111017 -0.398974 0.774727 0.197727 -0.705511 -0.816346 0.49 -0.399398 -0.576322 1.22613 0.616514 -0.4482 0.363711 -0.695907 -0.683535 -0.714328 -0.0115086 -0.369164 -0.214241 -0.596784 0.642196 0.530695 0.243477 0.174641 0.525964 0.74412 -0.235128 -0.915203 0.0294842 0.248824 -0.873365 -0.858867 0.311897 -0.7 -0.94 -0.149895 -0.830203 0.397827 0.446149 0.150582 -0.442571 -0.0707987 -0.356593 0.0359177 0.222788 -0.65487 -1.53764 -0.382606 -0.311272 -0.441236 -0.548963 0.121401 0.532553 -0.70223 -0.213149 -0.217996 -0.719269 0.0128371 -1.078 -0.107389 0.740151 0.469973 -0.58 0.440007 -0.553605 -0.59453 0.966003 -0.250459 -0.375615 0.201274 -1.01982 -0.523703 0.507202 -0.729802 0.224641 0.824228 -0.683566 1.33567 0.372038 -0.537432 0.220023 0.628899 -0.22875 0.386109 0.514556 -0.475106 -0.982675 0.597987 0.208859 -0.790027 0.85 -0.58 0.504379 -0.000885073 0.674393 -0.703555 -0.00433503 -0.115932 -0.590501 -0.207565 0.48223 -0.929243 1.05921 0.984679 1.04735 0.551545 0.963038 0.661886 -0.351141 0.0356231 -0.388536 -0.00229648 -0.578565 0.905507 0.394188 -0.516471 -0.518788 0.63 -0.09 0 -0.425134 -0.291842 -0.646606 0.324209 -0.245975 -0.294756 0.839726 -0.141659 1.18328 0.0467231 0.487182 -0.689889 0.337421 -0.621013 0.848103 0.686175 -0.499703 -0.473291 -0.725164 0.00302905 0.172287 0.329531 0.717811 0.442918 -0.31425 -0.25 0.24 0.9 0.403746 0.649995 -0.345799 -0.589186 0.1601 0.416154 -0.579008 0.789692 -0.566099 -0.953999 -0.0440165 0.128874 0.698387 -0.37539 0.742363 -0.982763 -0.638515 0.125413 -0.490435 0.946171 0.267987 0.248837 0.228804 -0.644174 0.855885 -0.51 -0.98 -0.38 0.89 0.910167 -0.865279 0.931579 0.576222 -0.539716 0.0590071 0.524585 -0.912396 0.898926 -1.00353 -0.935378 -0.911255 -0.164463 -0.118191 -0.794375 0.186489 -0.651541 -0.92336 -0.0532325 0.0607978 0.328265 -0.058891 0.28 0.2 0.18 0.16 0.53 -0.05 0.26 -0.340003 0.939998 0.115762 0.763302 -0.523071 -0.394466 -0.56481 0.805078 -0.823824 0.776391 -0.852742 0.793127 0.55244 -0.118911 -0.0685069 0.984314 -0.725642 0.131923 0.909561 0.0676436 -0.52 -0.34 -0.75 0.53 0.38 -0.66 -0.46 0.54 -0.3 0.55 -0.93 0.75 -0.32 0.77 -0.38 0.14 0.554554 0.934554 0.559988 -0.830012 -0.23 -0.21 0.19 0.17 -0.87 -0.86 0.92 -0.22 -0.75 -0.12 -0.31 0.54 0.39 0.18 0.8 -0.82 0.92 -0.44 -0.441256 0.603699 0.319751 0.586228 0.26021 0.434617 -0.322623 0.407847 0.800383 0.161325 0.142647 0.656249 -0.534005 0.625401 0.73674 0.32401 -0.992973 -0.445111 0.5 -1 0.94 0.38 0.32 0.37 0.60987 0.172996 0.932971 -0.579498 0.480705 0.157894 -0.852567 -1.03857 0.696227 -0.0695728 -0.184827 -0.423102 -0.647114 0.374161 0.25794 0.225275 0.128745 0.400769 0.748493 -1.09967 0.459269 -0.771088 0.896055 0.430962 -0.04 0.11 -0.88 -0.47 -0.670132 0.565255 0.662105 0.189282 0.753348 0.630888 -1.23646 -1.18464 0.0495812 -1.38732 0.0894211 -1.24929 -1.3871 -0.676183 -0.11736 -0.601164 -0.286385 -0.528027 -0.182319 -0.202713 -0.0718944 -0.69502 -0.38938 -0.650522 -0.406225 -0.23 0.32 0.58 0.22993 -0.92885 0.188718 0.815707 -0.77526 -0.752498 -0.335522 -1.36956 0.184165 -1.07576 -0.807843 -1.22139 0.246314 -0.0216195 -0.187319 -0.171965 -0.639834 -0.815464 -0.516818 0.0322288 0.457767 0.99526 -0.710429 0.844648 0.682226 -0.838797 -0.88 -0.26 -0.858885 0.838247 0.866258 0.36682 0.281069 0.177414 -0.738123 0.417945 -1.00888 -0.171929 0.37918 -0.0581951 0.253041 -0.269921 -0.622572 -0.642884 0.178194 0.451887 -0.64301 -0.586397 0.302051 0.619938 0.377298 0.860247 -0.935549 0.480119 0.72 0.530048 0.78787 0.910493 -0.863005 -0.509048 -0.605813 0.261883 0.810475 0.814007 0.187759 0.765538 -0.187401 -0.117886 -0.249188 0.102499 0.0269493 0.589335 -0.713823 0.68509 0.62992 -0.968803 0.87465 -0.527148 0.0143884 0.588362 0.343289 -0.979917 0.11 0.845669 0.547832 0.879609 -1.03302 1.03344 -0.531422 -0.0312506 -0.24658 0.568391 -0.674038 -0.0254205 1.04304 -0.37384 0.61831 0.41603 0.402994 1.01517 0.0587423 -0.80276 -0.485772 0.480867 0.9053 -0.378719 0.00782158 -0.0901527 0.136703 -0.150538 0.689429 0.735955 0.271629 0.415506 -0.0196488 0.543285 -0.358309 0.454188 -0.595403 -0.726399 -0.787006 0.439715 0.322963 0.394596 -0.235252 -0.212809 0.0928462 0.380975 0.14646 0.280916 0.0270825 -0.416779 -0.859261 0.253814 -0.782703 -0.433237 -0.798262 -0.965348 0.85 -0.52601 0.457019 0.496383 0.85408 -0.327842 -0.30522 -0.464849 0.529297 0.799264 -0.0135658 0.420036 -0.220992 0.596616 0.0860965 -0.375512 -0.850403 0.714059 1.18394 0.419174 0.366508 0.513361 1.06032 -0.488318 0.44176 0.510085 0.0152537 -0.833931 -0.659907 0.849676 -0.77213 0.185424 1.35396 -0.625283 -0.780333 0.898226 -0.265959 0.95791 0.0523848 0.202575 -0.135187 -0.0249526 0.451579 0.136489 -0.598785 -0.252992 1.23199 -0.194492 0.63682 -0.200859 -0.264075 0.833834 -0.399305 0.464285 0.205964 0.391066 -0.929907 -0.64076 -0.413342 0.834759 0.140048 1.15644 0.145438 0.088897 -0.457637 0.340293 -0.510645 -1.12773 -1.24333 -1.19457 0.349666 -0.636343 0.381427 -0.0953176 -0.0422246 1.28751 0.996914 -0.137499 0.0194902 0.738477 0.121249 0.0624056 0.557157 -0.0391922 -0.639959 0.405278 -0.160515 0.527867 -0.195703 -0.533271 0.46516 0.111061 0.00863329 0.382422 -0.854963 0.842104 -1.12792 0.261171 -0.234063 -0.261411 0.333646 0.483602 -0.472063 -0.872761 0.0822005 -0.605846 0.514528 -0.982688 0.414561 -0.253872 -0.0967258 0.462651 0.869999 0.580525 -0.239936 -0.0376075 -0.529584 0.0930427 0.279086 0.623333 0.18085 -0.216289 1.04379 0.0990175 0.296695 0.515186 -0.0500915 -0.135132 0.942445 0.531862 0.96999 -0.880474 -1.0967 -0.651042 0.752461 0.579185 0.0855802 0.11492 -0.361096 -0.699492 -0.61992 -0.118326 -0.339746 -0.644998 0.0356728 0.864017 1.09121 0.656586 1.01694 0.631499 0.249643 -0.664588 0.846426 0.256212 0.668542 -0.169505 0.857954 0.559487 0.505654 0.242292 0.295832 -0.166186 -0.985475 0.655081 0.01858 0.820755 -0.731069 0.230053 0.162357 -0.168431 0.784937 0.0152845 0.759476 -0.141969 0.931512 0.234375 -0.222835 -0.0289887 -0.237184 0.551852 0.564652 -0.351717 0.195821 -0.261809 1.31747 0.566916 0.450062 -0.193454 0.564968 -0.804084 -0.582852 -0.604156 0.00376092 -0.54362 0.256048 0.100282 -0.767723 0.742371 0.974048 0.922596 0.475872 -0.467623 0.907486 0.00030834 1.16626 0.285473 0.496911 0.36905 0.653171 0.351531 1.07193 0.0307309 1.14841 0.549739 -0.107128 0.232245 -0.438881 0.944679 0.303066 -0.495086 0.180968 -1.01207 -0.0767847 0.0559644 -0.44 0.82299 0.923658 -0.264862 0.350882 -0.421842 -0.76041 0.581124 0.304941 -0.698522 -0.0639388 0.257685 1.07724 0.509425 1.19625 0.572707 -0.0592863 0.340966 -0.335346 -0.73395 0.0525485 -0.908478 0.434871 0.17254 0.338218 -0.26757 0.059471 -0.014582 0.0897473 -0.229298 -0.244175 0.0858765 0.0598504 0.636718 -0.709487 -0.354336 0.243052 0.370157 -0.204445 -0.0672151 -0.341619 1.11049 -0.249367 -0.444112 -1.14649 0.214175 0.4276 -0.284823 0.710117 -0.0976033 0.0834263 -0.371514 -0.00199964 0.546349 -0.381654 0.549073 -0.31993 0.191583 -0.795815 -0.166486 -0.0787134 -1.05143 0.247278 -0.663697 0.645427 -0.599484 -0.202368 -1.16513 -1.28654 -0.372015 -0.138262 0.407003 -0.544356 -1.17277 -0.714019 -0.223338 -0.486168 0.10733 -0.175718 -0.0320809 -1.21637 0.775937 -0.419969 0.696772 0.71 0.951487 0.0994557 -0.168823 -0.787842 0.544664 -0.176705 -0.557699 -1.05148 -1.22672 -1.14403 -1.05835 -1.25933 -1.45595 0.230077 -1.04097 0.615086 -0.864858 -0.975961 -0.801751 -0.380566 -0.347329 -0.277124 -0.0828891 -0.708135 0.425688 -0.427514 -0.0204462 0.900002 -0.380023 0.16674 0.170511 0.377385 0.0905571 0.142265 -1.07075 -0.687931 -1.37077 -0.0247282 -1.09521 -0.729222 -0.925703 -0.0602071 -1.00343 0.333555 -0.19825 -0.327237 0.757506 -0.469006 0.635549 0.379953 0.379168 -0.419131 -0.90515 -0.108977 0.59 -0.699998 -0.88001 -0.524068 0.578289 0.144534 0.271501 0.0428825 -0.450816 -1.28365 -1.28582 -0.408412 0.282616 -0.210468 -0.486713 -0.933427 -0.258742 -0.184258 -1.08643 0.691583 0.366713 0.150179 0.271185 0.583246 -0.882687 -0.0929607 -0.728987 0.466084 0.43 0.58 0.83 0.784476 -0.48384 -0.740252 -0.406418 -0.454035 -0.299588 0.0579628 0.73143 0.0929471 -0.848175 0.615976 -0.402034 -1.07531 0.309558 0.025562 0.563749 -0.800001 -0.304136 -0.118431 0.479301 -0.528398 0.827722 -0.751345 -0.708856 0.589664 -0.48 -0.43 -0.64 0.118837 0.96461 -0.0770514 -0.725829 0.78237 -0.0140699 0.827337 0.805317 0.295103 0.59154 0.453983 0.660512 0.367139 -0.693522 0.395173 -0.462304 1.12148 0.860104 1.15881 -0.542614 0.511806 -0.911524 0.206638 -0.538445 0.0791819 -0.9 0.36 -0.57 -0.909155 0.638314 0.0726135 0.195427 0.0273569 0.924915 -0.366623 0.135144 -0.684787 0.395465 0.0992575 -0.193829 0.356771 0.211615 -0.757371 0.570862 0.950541 0.660734 0.690901 -0.707123 -0.316055 0.492612 0.799274 -0.501103 0.669149 -0.78 -0.37 0.26 -0.38 -0.296806 -0.583435 -0.553647 0.281472 0.675853 0.710816 -0.752593 -0.681568 0.720159 -0.333119 0.714744 0.141522 -0.493246 0.694537 0.0764195 -0.175303 -0.35832 -0.385094 -0.58324 -0.351214 -0.542741 -0.260001 0.0100001 0 -0.47 0.6 -0.43 0.65 -0.22 -0.689992 -0.909976 0.250073 -0.219499 0.680786 -0.308323 -0.108242 0.994298 -0.228346 -0.300489 0.902704 0.0981124 -0.366961 -0.656428 0.531921 -0.839375 -0.479896 0.32351 -0.197658 0.48636 0.72 -0.71 0.74 -0.87 -0.31 0.74 0.44 0.55 0.08 0.46 -0.08 0.22 0.7 -0.66 -0.8 0.64 -0.850005 0.659995 0.199995 0.749995 0.3 -0.5 0.62 -0.97 -0.41 -0.36 0.29 -0.33 -0.15 0.23 -0.01 0.47 -0.55 -1 0.46 0.22 -0.4 0.52 0.460414 0.590407 -0.589524 0.688696 0.0182239 -0.71174 0.817852 -0.682422 -0.859551 0.345719 0.565422 0.773462 -0.423946 0.360167 0.489537 -0.600633 -0.380635 -0.280002 0.14 -0.93 0.23 0.49 0.54 0.71 -0.41 -0.390002 0.739979 0.660599 -0.75878 0.958147 0.565257 -0.369145 0.632389 -0.784613 -0.443301 0.819568 0.579078 -0.834074 0.341662 0.30375 -0.357823 -0.760401 -0.749184 0.260548 0.560968 -0.350187 0.0899837 -0.810013 0.11 0.89 0.51 -0.72 -0.839911 0.660072 0.280719 -0.608496 0.840453 0.559265 0.26329 0.634036 -0.293311 0.743236 -0.66799 -0.850873 0.701411 0.100716 0.16048 -0.558473 -0.179757 -0.0880815 -0.145891 0.46716 -0.358501 0.0744153 0.369147 -0.600375 -0.190336 -0.06 0.88 -0.49 -0.42991 -0.299936 0.722075 -0.285305 0.215486 0.5473 -0.784319 -0.876628 -0.700553 0.256076 0.505105 -1.14337 0.419259 0.762625 0.426819 -0.0639899 0.278763 0.512845 -0.324288 -0.972223 -0.597118 -0.00706066 -0.51507 -0.880762 -0.741574 0.219244 -0.31 0.45 0.410663 -0.035656 -0.00507308 0.00307102 0.552609 -0.171185 -0.278849 0.0156135 0.433884 -0.248589 -0.859742 -1.23959 -0.829969 0.00815688 0.236506 0.220046 -1.11111 -0.953128 -0.109118 -0.144242 0.748767 -0.0132629 -0.665891 0.0999769 0.202582 0.65684 0.89 0.140008 -0.151202 -0.764111 -0.343163 -0.420093 -0.611604 -0.0218905 0.549307 -0.822249 0.723086 0.974207 0.239592 0.42259 -1.22444 -0.220849 0.170564 0.345359 -0.580329 0.301571 0.38731 0.58892 0.381531 0.786033 -0.123745 0.114239 0.301031 0.680361 0.34 0.798185 0.420906 -0.490602 -0.322925 0.705444 -0.154896 -0.557585 -0.687989 0.3807 0.126493 -0.423234 -0.865621 0.0412653 -0.668078 -0.170956 0.538125 0.395794 0.832864 0.344992 -0.0113052 0.514398 0.485262 -0.645512 0.0980884 -0.979341 -0.121504 -0.337359 -0.65 -0.932084 -0.930577 0.00828953 -0.556907 -0.59838 0.709659 -0.0405542 0.605931 0.440526 0.565984 0.770905 0.28345 -0.773008 -0.472621 -0.575898 0.302724 1.01242 0.915453 -0.0366252 0.14331 -0.774977 -0.401111 -0.246573 0.21293 0.700643 0.061049 -0.848912 -0.78 0.783263 0.996752 -0.704216 -0.180196 0.77491 0.816074 0.0457081 -0.59043 0.392941 0.267683 -0.844659 -0.84899 -0.0450327 -0.375766 -0.354987 0.377566 0.912699 0.0357045 0.125976 -1.0587 0.203594 -0.0375062 -0.537989 -0.428515 0.774674 -1.00093 0.712455 0.82 -0.0467351 0.313944 -0.372622 -0.615422 -0.932017 -0.483371 -0.284482 0.103863 0.0687524 0.731588 -0.775353 0.22045 -1.10568 -0.429187 -0.399778 0.575785 0.713916 -0.537288 -0.954996 0.503196 -0.439865 -0.719431 0.112528 0.761172 -0.953326 0.104914 -0.820294 -0.38 0.427984 0.469149 -0.0234919 -0.362984 -0.495546 -0.425624 0.267968 -0.404479 0.0641049 -0.698429 0.0933679 0.312547 0.0790334 -0.544811 0.0695912 -0.506213 0.551025 -0.00784316 -0.230686 0.286475 -0.354071 -0.768892 -0.530107 0.949224 0.739658 -0.684394 0.528319 -0.02 -0.990057 0.292219 0.720245 0.562472 0.783819 0.55517 0.180385 1.1711 -0.652553 -0.528018 -1.23296 -0.542149 -1.06435 -0.928099 -0.508762 0.359412 -0.973481 -1.16546 -1.31756 -0.298338 0.349015 -0.534786 0.539406 -0.263749 -0.579982 0.234289 -0.195641 0.7 0.840071 0.233537 -0.0157295 -0.22998 0.721113 -0.458497 -0.958766 0.0804445 -0.86648 -0.864654 0.463869 0.259163 0.570136 -0.168685 0.94677 0.0553581 0.684025 0.864096 -0.156951 0.461303 -0.47782 -0.77303 0.503356 -0.447564 0.625366 -0.761599 -0.315288 0.38 0.290041 0.320245 -0.931544 -0.349815 0.238771 0.438067 0.45515 -1.08573 -0.610678 0.149812 -1.19854 0.404512 0.0455719 0.0598069 -0.219686 -0.127593 -0.030514 -0.41804 0.357065 -0.707607 -0.430744 0.41397 0.332969 0.520103 -0.152238 0.916622 -0.185296 -0.16 -0.930018 -0.719376 -0.721814 0.151166 -0.116752 0.188982 0.447591 -0.664886 0.246747 0.556353 0.401605 0.0464751 1.09013 -0.370212 0.849304 1.19621 -0.485496 -0.334246 -0.109842 0.0440512 -0.54075 0.853527 0.250179 -1.01045 -0.332163 -0.76435 0.309995 0.44 0.330128 -0.351179 -0.0219878 0.362651 -0.367286 -0.695487 0.871368 -0.37312 0.648608 -0.0627307 0.293674 -0.526031 1.01698 -0.335921 0.581605 -0.00873175 0.388467 0.316577 -0.241342 0.289513 0.658732 0.417891 0.315912 -0.721469 -0.88684 0.142073 -0.25 -0.22 0.900128 0.218667 0.480143 0.88241 -1.01782 -0.993131 -0.0393404 0.30476 -0.122385 0.244118 -0.0054586 0.615907 0.730395 0.0796147 0.0112865 -0.287843 -0.752733 0.532607 -0.595322 1.16321 -0.0650014 -0.32723 -0.0668916 -0.94721 -0.82843 0.793833 0.109874 -0.469884 -0.749701 -0.839503 0.348094 -0.148914 0.154468 -0.262932 -1.2582 0.337111 -0.545552 -0.643678 0.329396 0.380857 0.233626 -0.939109 -0.765769 0.226644 -0.602526 0.214558 -0.495906 -0.707235 0.975068 0.0653766 0.43296 -0.219562 0.0519158 -0.822281 -0.859957 0.38014 -0.499873 -0.599404 -0.405983 -0.229597 0.0379351 0.186026 0.419464 0.720814 -0.2201 1.07834 0.641933 0.111324 0.101243 -1.07021 -1.11716 -1.06662 -0.835431 -0.363055 0.493972 0.476914 0.418226 0.520296 -0.221593 0.711375 -0.751549 0.14681 -0.0999461 -0.53 0.699988 0.242534 0.154335 -0.255972 0.2773 -0.12002 -1.00086 0.200959 -0.0293133 -0.384211 0.751261 0.701899 0.365721 0.238243 -0.120424 -0.93935 -0.679613 -0.148223 -1.36806 -0.314712 -0.893426 0.506231 0.36721 0.375906 0.550076 0.767712 0.849989 -0.769952 -0.379964 -0.00966226 0.286825 0.662881 0.571287 0.291963 0.695585 -0.587907 0.384045 -1.1953 0.00274867 -0.434522 -0.954046 -0.559806 0.334704 -0.272051 0.452819 -0.00302393 0.290276 -0.372058 0.944134 0.170771 -0.0963023 -0.44139 -0.429545 0.208952 -0.96 0.410048 0.400036 0.180937 0.110517 0.896319 -0.882344 -0.648528 0.196325 0.233621 -0.573264 0.0346097 -0.52636 1.05693 0.00231869 -0.121166 -0.904183 -1.38614 -0.892918 0.102018 -0.355037 0.330618 -0.721979 -0.677468 0.84774 -0.423886 1.01764 -0.703172 -0.76 0.97 -0.36 0.00877895 0.898348 -0.264733 0.200563 0.156526 0.210448 0.681859 -0.954466 0.24232 0.874711 0.878325 0.280095 -0.640078 -0.384053 -1.22036 -0.677633 -1.24602 -0.105404 -0.939616 -0.529974 -0.431666 0.100798 -0.0706651 0.46483 -0.627491 0.37 -0.69 -0.24 0.809803 0.84642 0.3236 0.909213 -0.548472 -0.210791 -0.524101 -0.807772 0.433805 -0.541992 -0.428464 1.05086 0.994358 -0.845569 -1.03457 -0.0297501 -0.0763318 0.278311 0.965769 -0.369645 0.959917 -0.687167 -0.229893 0.702292 -0.287879 0.35 -0.68 -0.63 0.939987 0.24508 0.0763987 0.370959 -0.707907 -0.907275 0.408984 0.612538 -0.648523 0.643221 0.415959 -0.0228473 -0.313914 -0.960549 0.382845 -1.01034 -0.976541 -1.07383 -0.0111562 -0.411391 -0.99519 -0.513754 -0.704063 0.252116 -0.0378836 -0.72 -0.27 -0.21 -0.97 0.00989575 0.12972 -0.70803 0.373287 0.71565 0.010444 0.575182 -0.0606065 0.741163 0.572705 0.321021 0.149495 -0.856221 -0.409976 0.00958731 -0.656702 0.755036 -0.399039 -0.88227 -0.00374649 -0.519781 0.6 0.23 -0.81 -0.55 -0.12 -0.28 -0.98 -0.95 0.840003 0.0100026 0.74675 0.87675 0.566568 -0.863141 0.310699 -0.37918 -0.190624 -0.263023 0.241149 0.872516 0.909861 0.837504 -0.602351 -0.0124719 -0.117861 0.362206 -0.219936 0.460074 0.66 -0.37 -0.12 0.2 -0.31 0.27 0.93 0.62 -0.78 0.28 -0.85 -0.89 0.81 -0.25 -0.78 -0.93 -0.580094 -0.310094 -0.599813 0.0701874 -0.89 -0.72 -0.37 0.9 0.16 -0.45 -0.77 0.37 0.58 -0.48 -0.11 0.51 -0.16 -0.34 -0.4 0.21 0.11 -0.870553 -0.198734 -0.288121 0.407778 -0.0200551 -0.63827 -0.429788 -0.887804 0.40485 0.1754 -0.669592 0.291502 -0.0772842 0.702644 0.796084 -0.545972 0.149923 -0.686104 0.993896 -0.15 -0.53 -0.15 0.9 0.87 -0.76 -0.069998 -0.0999979 0.0699983 -0.0602191 0.371506 -0.226809 0.375728 -0.929839 0.605262 0.0279567 -0.733843 0.932903 -0.982071 -0.264578 0.565421 -0.215394 0.189567 0.668126 -0.681727 0.568565 -0.698096 -0.204327 0.138774 -0.0091803 -0.22 -0.44 0.16 -0.4 -0.260001 -0.160171 -0.289899 0.204948 -0.740858 -0.141321 0.976719 -0.684601 -0.611085 1.04104 0.573204 -0.671055 -0.857874 -1.20185 -0.285262 -1.20505 -0.415005 0.629617 0.448225 -0.124065 -0.370294 0.84264 -0.328247 0.476235 0.575334 0.67 0.14 -0.500003 0.52975 -0.563877 -0.15947 0.900348 -0.658819 0.670583 -0.148655 0.348049 0.495517 -0.00984604 0.162601 0.0342484 -0.937116 -0.316001 -0.601497 -0.755613 0.396402 -1.08421 0.787814 0.598592 -0.314333 -0.724676 1.09053 0.159806 -0.54018 -0.529968 0.68 0.1 -0.09014 0.280739 -0.0699277 0.149426 0.287891 0.142246 0.937156 0.704093 0.257983 0.62901 -0.747451 -0.369963 -0.323893 0.690217 0.463496 0.263755 -0.512085 -0.465001 1.0485 -0.43798 -0.187132 0.955276 0.560603 1.00302 -0.353287 0.164618 0.21 -0.317764 -0.058318 -0.829017 0.754121 0.00551792 -0.788072 -0.666001 0.262655 0.82516 1.03051 -0.413042 1.26613 1.85761 1.68595 1.68532 1.09733 0.510674 -0.474975 0.760966 -0.437239 0.246371 0.683705 -0.559375 -0.0934351 0.68666 -0.441945 0.966372 -0.109997 0.092979 0.580582 -0.716555 -0.155026 0.468614 0.596785 1.05659 1.06563 -0.442498 0.299635 1.08647 1.31289 1.75797 0.401983 1.43117 1.27245 0.935455 1.31732 -0.527329 0.134707 -0.307237 -0.600662 0.531723 -0.248288 0.0400523 0.138293 0.98748 0.480003 0.404182 0.74192 0.864689 0.357164 -0.175039 0.58405 -0.397547 0.62219 0.697196 1.17605 0.117936 1.56697 0.538383 1.42475 -0.443049 -1.26527 -0.214072 0.322264 -0.16342 -0.131064 -0.948855 -0.160973 -1.20212 -1.22545 0.475902 -0.121249 0.695499 -0.27 -0.190689 -0.883367 0.113491 0.375712 0.134839 -0.392921 0.730502 0.395235 0.826966 0.108198 0.437313 -0.238887 -0.324037 0.0589876 0.502774 0.306786 -0.0108886 -0.475482 0.594719 -1.08266 0.243911 -1.13863 0.412639 -0.309436 0.882732 -0.858105 0.922831 -0.650001 0.449124 -0.97553 -0.00374264 -0.275583 -0.534528 -0.457501 -0.269135 0.299238 -0.398134 0.421215 -0.283878 -1.06121 -0.117339 -0.624842 -1.12253 0.421984 0.307646 0.559076 -0.421154 -0.18032 0.067745 -0.927637 0.113731 -0.797418 0.436571 0.377748 -0.122336 0.519998 0.119144 -0.284793 0.41692 -0.165525 0.572689 0.473928 -0.346034 -0.768672 -0.317684 -0.533283 -1.00215 -0.0886774 0.349897 -0.319847 0.945091 -0.931636 -0.441124 0.138297 -0.0339467 -0.926929 0.745514 -0.692577 -0.540968 0.0829312 -0.895918 -0.314784 -0.561872 0.68999 0.800435 -0.130084 0.749178 -0.426813 -0.84733 -0.412344 -0.237762 -0.727876 -0.628166 -0.82716 -0.754895 -0.267942 -0.299888 -0.0966151 -0.94944 -0.397019 -0.088224 0.137256 -0.344621 0.207142 -0.794063 0.913365 -0.0533521 0.659762 0.80621 0.949128 0.127132 -0.61 0.770133 0.282239 0.031689 -0.551541 -0.877241 0.728017 -0.233581 -0.133426 -0.562015 -0.305823 -0.261383 -0.509288 0.508534 -0.974838 -0.667507 -0.997298 -0.42446 0.57699 0.532822 -0.233549 0.059717 -0.887998 -0.698928 -0.924227 -0.445647 0.775416 0.0067857 -0.590006 0.208917 0.764473 0.650526 -0.866264 -1.09473 -0.0124809 0.900053 0.430035 0.665877 -0.571816 0.23181 -0.0326323 0.738386 -1.04021 -1.25583 0.189699 0.360084 0.069853 -0.326858 0.0847401 -0.0956167 0.267079 0.703833 -0.668654 -0.259518 0.559407 0.92693 0.950023 -0.170008 -0.844348 0.726481 0.742327 0.506566 -0.55173 -0.362571 -0.798216 0.510942 -0.712038 -0.143088 -0.706127 0.495248 -0.0693354 -0.403379 0.138028 -0.06365 -0.78848 -0.320499 -0.125509 0.112328 -0.608896 -0.577183 1.02283 0.847679 0.915676 -0.947546 -0.479971 0.679248 -0.502266 0.495004 -0.308967 0.618534 0.173276 -0.882574 -0.180464 0.128479 0.498661 -0.1653 0.0934443 -1.00607 -1.14724 -0.530326 -0.0271592 -0.239876 -0.581762 0.57536 0.207589 0.345049 0.201412 -0.813703 0.670224 0.836233 0.429786 -0.507789 0.8 0.837077 0.501106 0.37746 0.505102 -0.929147 0.579234 -0.554523 0.0938828 -0.400205 0.131162 -0.899968 0.872607 -0.180141 0.764968 -0.357422 0.0102932 0.4361 -0.489522 0.743948 0.546639 -0.183695 -0.338419 0.971344 -0.174814 0.474837 -0.574446 0.182497 -0.789733 0.567655 0.212355 -0.83427 0.316746 0.228026 -0.42156 -0.689053 -0.0295612 0.173695 -0.14477 0.00165188 0.512786 -0.847491 -0.498788 -0.920673 -1.17021 -0.229919 -0.426126 -1.0164 0.868435 1.06355 -0.422442 -0.329816 0.0191795 -0.69701 0.0911569 -0.186124 -0.0599567 0.0902933 -0.581834 -0.802788 0.709263 0.0901146 0.275952 -0.432662 0.961005 0.519742 -0.472383 -0.604931 0.0169655 -0.673017 -0.130231 -0.800018 -0.409765 0.302131 0.729724 -0.765952 -0.391293 0.942909 -0.149503 -0.406291 -0.11317 -0.0905879 -0.271612 0.297007 0.42 -0.41005 -0.875143 0.577241 -0.181055 0.0395967 0.0979725 -0.111988 -0.188157 -0.0277141 0.0556864 -0.428157 -0.385838 0.12259 -0.96211 1.14154 0.598689 0.36217 -0.558347 0.0290255 -0.031548 -0.523973 0.24991 0.161359 0.688802 -0.258251 -0.433413 -0.309949 -0.19 -0.780025 -0.790615 0.402953 -0.655673 0.143731 0.167246 0.207921 0.400007 -0.285826 0.0756502 -0.647594 -0.981194 -0.843132 -0.249568 -0.224337 0.8848 -0.54707 -0.195304 -0.408828 -0.617653 0.366545 -0.829482 0.961143 1.0558 0.819587 0.621673 -0.359999 -0.51 -0.720029 0.188584 0.539502 -0.476098 0.94131 0.0286689 -0.29662 0.138024 0.64197 -0.249568 -0.127398 -0.728349 -0.232429 -0.192932 0.916004 0.32017 -0.170117 -0.025261 -0.002888 -0.0292329 -0.0194617 0.778884 0.546293 0.946236 0.148174 -0.235965 -0.819999 0.18 -0.24 0.817226 -0.618686 -0.180692 0.221054 -0.627576 0.962727 -0.389655 1.24053 1.37106 1.93917 0.740038 1.26725 0.694793 0.00022104 -0.872775 -0.457074 0.710927 -0.740541 -0.535525 0.623071 0.129153 0.579309 0.396021 -0.168738 -0.143443 0.93 0.12 -0.37 0.0916682 -0.780442 0.0972862 -1.20056 -0.426966 0.299686 -0.465942 -0.543468 -0.500929 0.715354 0.994395 0.235318 0.492115 -0.149434 0.324369 0.682782 -0.0456307 -0.368749 -0.344362 -0.96568 0.312375 -0.722351 0.801289 -0.224161 -0.482661 -0.38 -0.34 -0.48 0.309774 -0.0328463 -0.0364738 0.0629059 0.696871 -0.919387 0.794245 -0.299592 0.472124 0.0639305 -0.45602 0.786101 -0.369527 0.123373 0.657938 -0.42046 -0.852846 1.05396 -0.440794 -0.880373 0.97118 -1.07503 -0.284289 0.218145 -0.411917 -0.87 -0.59 -0.82 -0.43 -0.63 -0.390324 0.237652 0.966747 0.299251 0.132519 -0.820401 -0.303671 0.772627 -0.26 -0.17661 -0.496442 0.322626 0.611355 0.151366 0.0169858 -0.411832 -0.45784 0.677274 0.580202 0.852352 -0.51864 -0.98 0.95 -0.62 0.86 0.61 0.62 -0.62 0.07 -0.8 0.590028 0.130028 0.200045 -0.630896 -0.952196 -0.15514 0.235145 0.176344 -0.372125 -0.493606 0.501794 0.80804 0.063176 -0.967384 -0.0157955 -0.57291 -0.0976224 0.292952 -0.6 -0.75 -0.24 0.48 0.57 0.94 -0.13 0.8 0.05 -0.14 -0.13 -0.12 0.71 -0.94 0.17 0.97 0.139847 0.409847 -0.0800195 0.0799805 -0.56 0.58 0.61 0.37 0.28 0.91 0.35 -0.01 -0.71 -0.26 -0.65 0.01 0.82 -0.87 0.31 -0.92 0.7 0.110054 -0.679482 -0.309616 -0.788856 -0.437673 0.233246 -0.157917 -0.868987 -0.891417 0.910605 -0.878584 0.821612 0.582244 -0.896625 -0.20935 0.650855 -0.849558 -0.0803729 -0.880516 -0.38 0.75 0.62 -0.74 0.36 -0.1 -0.450001 0.240007 0.390182 -0.439872 -0.259318 -0.874403 -0.222214 0.677561 0.195892 0.978268 -0.951404 -0.656144 0.531621 0.047194 0.813805 0.477096 0.78498 0.440963 0.326433 -0.788712 0.338725 -0.69787 0.54131 -0.338209 -0.04 -0.02 -0.51 0.85 0.898563 0.378184 0.459649 -0.349253 -0.965552 0.867091 -0.486719 -0.314598 -0.129679 0.600132 -1.06323 -0.260747 